{"sizes":[119,59,2],"layers":[{"0":{},"1":{},"2":{},"3":{},"4":{},"5":{},"6":{},"7":{},"8":{},"9":{},"10":{},"11":{},"12":{},"13":{},"14":{},"15":{},"16":{},"17":{},"18":{},"19":{},"20":{},"21":{},"22":{},"23":{},"24":{},"25":{},"26":{},"27":{},"28":{},"29":{},"30":{},"31":{},"32":{},"33":{},"34":{},"35":{},"36":{},"37":{},"38":{},"39":{},"40":{},"41":{},"42":{},"43":{},"44":{},"45":{},"46":{},"47":{},"48":{},"49":{},"50":{},"51":{},"52":{},"53":{},"54":{},"55":{},"56":{},"57":{},"58":{},"59":{},"60":{},"61":{},"62":{},"63":{},"64":{},"65":{},"66":{},"67":{},"68":{},"69":{},"70":{},"71":{},"72":{},"73":{},"74":{},"75":{},"76":{},"77":{},"78":{},"79":{},"80":{},"81":{},"82":{},"83":{},"84":{},"85":{},"86":{},"87":{},"88":{},"89":{},"90":{},"91":{},"92":{},"93":{},"94":{},"95":{},"96":{},"97":{},"98":{},"99":{},"100":{},"101":{},"102":{},"103":{},"104":{},"105":{},"106":{},"107":{},"108":{},"109":{},"110":{},"111":{},"112":{},"113":{},"114":{},"115":{},"116":{},"117":{},"118":{}},{"0":{"bias":-0.17496702075004578,"weights":{"0":0.16410285234451294,"1":0.12378609925508499,"2":-0.1092689111828804,"3":-0.03331206738948822,"4":-0.13023416697978973,"5":-0.12518885731697083,"6":-0.05047012120485306,"7":0.01658734865486622,"8":-0.18594828248023987,"9":-0.08503957092761993,"10":0.17955251038074493,"11":0.06400302797555923,"12":0.00738399988040328,"13":-0.15118727087974548,"14":0.08267867565155029,"15":0.02787855826318264,"16":-0.16700996458530426,"17":0.06391273438930511,"18":0.07117342948913574,"19":-0.021127264946699142,"20":-0.07885054498910904,"21":0.11896459758281708,"22":-0.16548094153404236,"23":-0.1205180436372757,"24":-0.10935697704553604,"25":-0.23464420437812805,"26":-0.052983351051807404,"27":-0.20769177377223969,"28":0.12270426750183105,"29":-0.05516238510608673,"30":-0.021420437842607498,"31":0.050413794815540314,"32":-0.1565413475036621,"33":0.08618747442960739,"34":0.006468870677053928,"35":-0.03426608443260193,"36":0.0019235133659094572,"37":0.042756590992212296,"38":-0.20655257999897003,"39":-0.11939318478107452,"40":-0.05057612806558609,"41":0.08024517446756363,"42":0.16383816301822662,"43":-0.10049277544021606,"44":0.12422355264425278,"45":-0.11051999032497406,"46":-0.18255023658275604,"47":-0.117158442735672,"48":-0.017422540113329887,"49":-0.11190547049045563,"50":0.1720922440290451,"51":-0.00044038021587766707,"52":-0.008190366439521313,"53":-0.0033435625955462456,"54":-0.040061354637145996,"55":0.07086135447025299,"56":-0.040449000895023346,"57":-0.09886569529771805,"58":-0.08842901885509491,"59":0.14525367319583893,"60":0.16449469327926636,"61":0.09113582223653793,"62":-0.04762819781899452,"63":0.054352056235075,"64":-0.03697367385029793,"65":-0.14211267232894897,"66":-0.09395324438810349,"67":-0.18304798007011414,"68":-0.0162686575204134,"69":-0.030910003930330276,"70":-0.11229082196950912,"71":-0.0030483149457722902,"72":0.016987180337309837,"73":0.1729177087545395,"74":0.09529513120651245,"75":0.12978385388851166,"76":-0.17672371864318848,"77":-0.05455166473984718,"78":-0.17538243532180786,"79":-0.187808096408844,"80":-0.09619566798210144,"81":-0.03339988365769386,"82":-0.00372391939163208,"83":-0.003979611676186323,"84":0.11702331900596619,"85":-0.050932079553604126,"86":0.1776924878358841,"87":-0.17002680897712708,"88":0.1040191650390625,"89":-0.17204633355140686,"90":0.030425284057855606,"91":-0.04561297595500946,"92":-0.14092420041561127,"93":-0.15557861328125,"94":-0.06686800718307495,"95":0.03790871798992157,"96":-0.05823175609111786,"97":0.116827592253685,"98":-0.047889746725559235,"99":0.09194070845842361,"100":-0.1995791345834732,"101":-0.15344741940498352,"102":0.11102624237537384,"103":0.1343056857585907,"104":0.0034051102120429277,"105":0.08743813633918762,"106":0.06514263153076172,"107":0.12196871638298035,"108":-0.21678481996059418,"109":-0.08356678485870361,"110":0.01380983367562294,"111":-0.039706964045763016,"112":0.07877584546804428,"113":0.013348070904612541,"114":-0.18135608732700348,"115":0.15606330335140228,"116":-0.04131409525871277,"117":-0.003087450983002782,"118":-0.08900649845600128}},"1":{"bias":0.058480218052864075,"weights":{"0":-0.1877594292163849,"1":-0.23133261501789093,"2":-0.09374880790710449,"3":0.07014404237270355,"4":0.12113628536462784,"5":-0.2195023149251938,"6":-0.06376807391643524,"7":0.13108541071414948,"8":-0.19516834616661072,"9":0.170904740691185,"10":-0.1874375194311142,"11":0.0528905875980854,"12":0.10305291414260864,"13":0.08755598217248917,"14":0.14553160965442657,"15":0.01184635516256094,"16":0.13378223776817322,"17":-0.12412489950656891,"18":0.0394291877746582,"19":0.026834052056074142,"20":-0.21611548960208893,"21":0.10454864054918289,"22":0.1609574258327484,"23":-0.11898644268512726,"24":0.050896137952804565,"25":-0.09718742966651917,"26":0.09986412525177002,"27":-0.2105470448732376,"28":-0.2143660932779312,"29":-0.18302665650844574,"30":-0.1854078769683838,"31":-0.03355921804904938,"32":0.00009643523662816733,"33":0.1112734004855156,"34":-0.07551966607570648,"35":0.002718839095905423,"36":0.06962326914072037,"37":0.01286582462489605,"38":-0.15759745240211487,"39":-0.0902121290564537,"40":-0.17415228486061096,"41":-0.15181389451026917,"42":-0.006438577547669411,"43":-0.08251828700304031,"44":0.07035159319639206,"45":0.04210860654711723,"46":0.09479772299528122,"47":0.034607164561748505,"48":0.10229959338903427,"49":-0.11663737148046494,"50":-0.05904344096779823,"51":-0.15944355726242065,"52":-0.16941021382808685,"53":0.14750909805297852,"54":0.12523040175437927,"55":-0.15030768513679504,"56":-0.0009425264433957636,"57":0.18662875890731812,"58":0.010805387981235981,"59":-0.19902116060256958,"60":0.03142240643501282,"61":-0.11504215747117996,"62":0.16037672758102417,"63":0.1275547295808792,"64":-0.1721842885017395,"65":-0.18019580841064453,"66":-0.10641305148601532,"67":-0.14373894035816193,"68":0.08027367293834686,"69":-0.037917155772447586,"70":-0.12307368963956833,"71":-0.11953751742839813,"72":-0.14478176832199097,"73":-0.1321684867143631,"74":0.0577240027487278,"75":0.04864729940891266,"76":0.1778620034456253,"77":-0.07214780896902084,"78":-0.1457923948764801,"79":-0.14489217102527618,"80":0.036826059222221375,"81":-0.08750291913747787,"82":0.03329890966415405,"83":0.14276212453842163,"84":-0.049276452511548996,"85":-0.06248834729194641,"86":0.07745616883039474,"87":0.16477762162685394,"88":0.03279058262705803,"89":-0.07735524326562881,"90":-0.1058780625462532,"91":-0.11015313118696213,"92":-0.04601328819990158,"93":0.04549933224916458,"94":-0.030936701223254204,"95":-0.20636029541492462,"96":-0.018756965175271034,"97":0.054947931319475174,"98":0.11144249886274338,"99":-0.1631738394498825,"100":0.06284967064857483,"101":0.12554794549942017,"102":0.016891343519091606,"103":-0.0052359458059072495,"104":0.15565252304077148,"105":-0.0860094353556633,"106":0.16538025438785553,"107":-0.13619950413703918,"108":0.0036832490004599094,"109":-0.0018207825487479568,"110":0.13917768001556396,"111":-0.24430197477340698,"112":-0.09906349331140518,"113":0.14458400011062622,"114":0.00973648764193058,"115":-0.012320980429649353,"116":-0.00011163313320139423,"117":0.0996151715517044,"118":0.11421265453100204}},"2":{"bias":-0.09496811032295227,"weights":{"0":-0.03929094970226288,"1":-0.2333819717168808,"2":-0.12591126561164856,"3":-0.047699928283691406,"4":-0.16162177920341492,"5":0.13959316909313202,"6":-0.1746843159198761,"7":-0.18081264197826385,"8":-0.026996450498700142,"9":0.05988195165991783,"10":-0.09293331950902939,"11":-0.10904271900653839,"12":0.006778435781598091,"13":0.07284490019083023,"14":-0.12012675404548645,"15":0.1551295816898346,"16":-0.2227533906698227,"17":-0.042905207723379135,"18":-0.023137599229812622,"19":0.0958113819360733,"20":-0.13773511350154877,"21":-0.009072679094970226,"22":0.029979145154356956,"23":0.1382460594177246,"24":0.021213771775364876,"25":-0.14298564195632935,"26":-0.16167119145393372,"27":0.06671550869941711,"28":-0.24427130818367004,"29":-0.1137213483452797,"30":0.12261534482240677,"31":0.14795200526714325,"32":0.08344180881977081,"33":-0.08132340759038925,"34":0.05769863352179527,"35":0.042927972972393036,"36":-0.18899521231651306,"37":0.030604002997279167,"38":0.01012731809169054,"39":0.10526423156261444,"40":-0.009970802813768387,"41":0.1602143794298172,"42":0.07971873879432678,"43":-0.024190498515963554,"44":-0.1371142715215683,"45":0.1795809417963028,"46":0.037258345633745193,"47":-0.056024253368377686,"48":0.12846744060516357,"49":0.12818969786167145,"50":-0.09508095681667328,"51":-0.19008108973503113,"52":0.04715422913432121,"53":0.16809508204460144,"54":0.14021004736423492,"55":0.13025407493114471,"56":-0.07950964570045471,"57":0.13466012477874756,"58":-0.0899927020072937,"59":-0.0088978735730052,"60":-0.018717925995588303,"61":0.16149431467056274,"62":0.10057032108306885,"63":-0.20825687050819397,"64":0.1112438440322876,"65":-0.0008052933262661099,"66":0.05155237391591072,"67":0.000249919859925285,"68":-0.05105235427618027,"69":-0.21974483132362366,"70":0.14109815657138824,"71":0.17251898348331451,"72":-0.04936572536826134,"73":0.1697336882352829,"74":-0.01056374330073595,"75":0.013488205149769783,"76":0.09880828857421875,"77":0.09362304955720901,"78":0.18861913681030273,"79":-0.16581784188747406,"80":-0.13445614278316498,"81":-0.21301311254501343,"82":0.045108355581760406,"83":0.14906474947929382,"84":-0.01593536138534546,"85":0.011977104470133781,"86":-0.21080094575881958,"87":-0.05020616203546524,"88":-0.05184926837682724,"89":-0.012786041013896465,"90":-0.18635454773902893,"91":-0.018809160217642784,"92":-0.1296834945678711,"93":0.04007525369524956,"94":0.10333743691444397,"95":0.05221620947122574,"96":0.016866516321897507,"97":0.13230372965335846,"98":-0.07962455600500107,"99":0.14217987656593323,"100":-0.2077314555644989,"101":0.09358856827020645,"102":0.0744231790304184,"103":0.1082359179854393,"104":-0.1501873880624771,"105":-0.12826871871948242,"106":-0.14039425551891327,"107":0.11606210470199585,"108":0.0004625323344953358,"109":-0.23321141302585602,"110":-0.0017753411084413528,"111":0.08436892181634903,"112":0.07409410923719406,"113":-0.09606798738241196,"114":-0.08089860528707504,"115":-0.15367653965950012,"116":-0.09035266190767288,"117":0.09450995922088623,"118":0.007462763227522373}},"3":{"bias":0.11324470490217209,"weights":{"0":-0.13704466819763184,"1":-0.03332469239830971,"2":0.059967782348394394,"3":0.11667848378419876,"4":-0.2169414758682251,"5":-0.11560919135808945,"6":0.125653475522995,"7":-0.04756323993206024,"8":-0.1782657504081726,"9":-0.1082024872303009,"10":-0.049665141850709915,"11":0.12581977248191833,"12":0.04900426045060158,"13":-0.08486130833625793,"14":-0.038056038320064545,"15":-0.048378221690654755,"16":-0.15352967381477356,"17":-0.15896059572696686,"18":0.17384234070777893,"19":-0.17452289164066315,"20":-0.1143341213464737,"21":0.027162887156009674,"22":-0.09119740128517151,"23":-0.23564225435256958,"24":0.05182729661464691,"25":0.04010652005672455,"26":0.10585354268550873,"27":0.11666124314069748,"28":0.14929720759391785,"29":-0.006700124591588974,"30":-0.07918806374073029,"31":0.06349824368953705,"32":0.15396472811698914,"33":0.1500823199748993,"34":-0.05512353777885437,"35":-0.20446449518203735,"36":0.10057708621025085,"37":0.07041264325380325,"38":-0.013964862562716007,"39":-0.11694210767745972,"40":-0.2041560560464859,"41":-0.034153733402490616,"42":0.06494923681020737,"43":0.000755396147724241,"44":0.14819245040416718,"45":-0.05121506750583649,"46":0.04487204551696777,"47":-0.17118403315544128,"48":0.013697411864995956,"49":0.08559666574001312,"50":0.1681555211544037,"51":-0.11306487768888474,"52":-0.1982365995645523,"53":0.02375691570341587,"54":0.12621210515499115,"55":-0.1415514498949051,"56":-0.11556650698184967,"57":-0.22231359779834747,"58":0.03516841679811478,"59":-0.15184913575649261,"60":0.10939633846282959,"61":0.10892555117607117,"62":-0.02055739052593708,"63":0.002184166805818677,"64":-0.03945915773510933,"65":-0.03420595824718475,"66":0.16326552629470825,"67":-0.020691264420747757,"68":-0.06710316985845566,"69":0.09439794719219208,"70":0.03910413384437561,"71":-0.06201319396495819,"72":0.1674422323703766,"73":-0.21490313112735748,"74":-0.018685748800635338,"75":0.15962764620780945,"76":0.040007609874010086,"77":0.15639984607696533,"78":0.1768028736114502,"79":0.14604666829109192,"80":-0.17509418725967407,"81":-0.05877058580517769,"82":-0.15159748494625092,"83":-0.023970963433384895,"84":0.15038470923900604,"85":0.012012389488518238,"86":-0.18542611598968506,"87":-0.20339637994766235,"88":-0.032042838633060455,"89":-0.03709491342306137,"90":-0.05075616389513016,"91":-0.03145701065659523,"92":0.04664767533540726,"93":0.08278591930866241,"94":0.033548176288604736,"95":0.0987597182393074,"96":0.1423359364271164,"97":0.04514239355921745,"98":-0.22075238823890686,"99":-0.07387176156044006,"100":0.033517297357320786,"101":0.011460426263511181,"102":-0.054925765842199326,"103":0.1254202127456665,"104":0.1663031429052353,"105":-0.033275045454502106,"106":-0.2087690830230713,"107":-0.2069583535194397,"108":0.04905255138874054,"109":-0.18117500841617584,"110":-0.08328783512115479,"111":0.04778212308883667,"112":-0.1754962056875229,"113":-0.007787939626723528,"114":-0.13463546335697174,"115":-0.19857490062713623,"116":-0.1513037383556366,"117":0.04304925724864006,"118":0.00644307117909193}},"4":{"bias":-0.14824502170085907,"weights":{"0":-0.10672208666801453,"1":-0.0487152561545372,"2":-0.16261041164398193,"3":0.1379208266735077,"4":-0.17905719578266144,"5":-0.05629200488328934,"6":-0.125628262758255,"7":-0.1320122331380844,"8":-0.04802945256233215,"9":-0.19604212045669556,"10":0.1570756882429123,"11":0.19937735795974731,"12":-0.11286044865846634,"13":-0.1152309849858284,"14":-0.14126066863536835,"15":0.03518832102417946,"16":0.035998500883579254,"17":-0.05063623934984207,"18":0.06638050824403763,"19":-0.21263927221298218,"20":0.004369448870420456,"21":0.059990543872117996,"22":-0.008800129406154156,"23":-0.04863463342189789,"24":0.11638094484806061,"25":0.03721952438354492,"26":-0.0812118649482727,"27":0.07311598211526871,"28":-0.1930011808872223,"29":-0.20796328783035278,"30":0.18262594938278198,"31":-0.19821539521217346,"32":-0.058967240154743195,"33":-0.0010378280421718955,"34":-0.19936424493789673,"35":-0.18269622325897217,"36":0.1102990135550499,"37":-0.10392741858959198,"38":0.13876232504844666,"39":0.14855952560901642,"40":-0.0004951765877194703,"41":-0.11183448135852814,"42":-0.014739626087248325,"43":-0.027522582560777664,"44":0.0056922221556305885,"45":-0.0173548124730587,"46":-0.05118690803647041,"47":-0.09045568853616714,"48":0.10930056124925613,"49":-0.06980948150157928,"50":-0.19514989852905273,"51":-0.0010684261796995997,"52":0.12271939218044281,"53":-0.06519993394613266,"54":-0.1942720115184784,"55":-0.08054151386022568,"56":0.10696455836296082,"57":-0.18876396119594574,"58":0.11779545992612839,"59":-0.11980556696653366,"60":-0.039023399353027344,"61":0.14653700590133667,"62":0.008014095015823841,"63":0.17224788665771484,"64":0.16419872641563416,"65":-0.14368446171283722,"66":0.13299447298049927,"67":0.1741514503955841,"68":0.003958601970225573,"69":-0.1935005933046341,"70":-0.014224503189325333,"71":0.07654956728219986,"72":0.07122302800416946,"73":-0.017379842698574066,"74":0.1325708031654358,"75":-0.019607651978731155,"76":-0.1347576528787613,"77":0.09063580632209778,"78":-0.18549516797065735,"79":-0.005099229048937559,"80":-0.07277661561965942,"81":0.16619431972503662,"82":-0.13888594508171082,"83":0.1519922912120819,"84":-0.046277016401290894,"85":-0.13704557716846466,"86":0.06785286962985992,"87":0.16901105642318726,"88":-0.11632267385721207,"89":0.12972168624401093,"90":0.06959296762943268,"91":-0.1554817408323288,"92":0.0971941351890564,"93":0.06875505298376083,"94":-0.029115675017237663,"95":0.04023553431034088,"96":-0.17276377975940704,"97":-0.2015923261642456,"98":0.17374715209007263,"99":-0.1647125482559204,"100":-0.14666110277175903,"101":0.17163527011871338,"102":0.04788873717188835,"103":-0.11733810603618622,"104":-0.18403112888336182,"105":0.011381126940250397,"106":-0.06560356169939041,"107":0.04030473902821541,"108":0.16535955667495728,"109":0.14359302818775177,"110":-0.04073518142104149,"111":-0.0623849593102932,"112":-0.2019565999507904,"113":-0.18299145996570587,"114":-0.17635585367679596,"115":0.17108812928199768,"116":0.01192595437169075,"117":0.12081749737262726,"118":0.06175927072763443}},"5":{"bias":0.04198763146996498,"weights":{"0":0.0655621737241745,"1":0.029409000650048256,"2":-0.05230559781193733,"3":0.20943254232406616,"4":0.054534364491701126,"5":-0.05166397616267204,"6":0.01626697927713394,"7":0.22585682570934296,"8":0.32571303844451904,"9":-0.07772161811590195,"10":0.07750798761844635,"11":0.1664685159921646,"12":-0.30107635259628296,"13":-0.02125428430736065,"14":-0.19638371467590332,"15":-0.05276650935411453,"16":0.07119598984718323,"17":-0.08473359793424606,"18":0.01879887469112873,"19":0.03985879197716713,"20":0.010778402909636497,"21":0.05283452570438385,"22":0.02982664294540882,"23":-0.12962591648101807,"24":-0.14609575271606445,"25":0.18829931318759918,"26":0.1066565066576004,"27":0.0038753184489905834,"28":-0.08434812724590302,"29":0.024993963539600372,"30":-0.15559038519859314,"31":0.20604382455348969,"32":-0.13693678379058838,"33":0.013046575710177422,"34":-0.06651566922664642,"35":-0.11009351909160614,"36":0.1025027260184288,"37":0.10796181857585907,"38":0.11057379096746445,"39":-0.12858231365680695,"40":-0.16878315806388855,"41":-0.07340335100889206,"42":-0.09852438420057297,"43":-0.053743887692689896,"44":0.1955634355545044,"45":-0.10666065663099289,"46":0.2294207364320755,"47":-0.24583958089351654,"48":0.1778646856546402,"49":0.1311979591846466,"50":0.00010140550148207694,"51":0.007180963642895222,"52":0.1890910267829895,"53":0.061374060809612274,"54":0.018861854448914528,"55":0.031852588057518005,"56":-0.224111869931221,"57":-0.23668035864830017,"58":-0.0525335818529129,"59":0.09391508251428604,"60":-0.3250899612903595,"61":-0.2222045660018921,"62":0.14017927646636963,"63":0.048494406044483185,"64":-0.15579110383987427,"65":0.1780606210231781,"66":0.08927341550588608,"67":0.22328874468803406,"68":-0.1859271377325058,"69":-0.1023639664053917,"70":-0.009537302888929844,"71":-0.2483976036310196,"72":-0.12068594992160797,"73":-0.27487149834632874,"74":-0.051532428711652756,"75":-0.062816321849823,"76":-0.28534188866615295,"77":0.05440723896026611,"78":-0.07980211079120636,"79":0.09452639520168304,"80":0.11886927485466003,"81":-0.17997880280017853,"82":-0.08691900223493576,"83":-0.04394055902957916,"84":-0.10149602591991425,"85":0.11414167284965515,"86":0.07340805232524872,"87":0.015132480300962925,"88":0.07445254176855087,"89":-0.025511331856250763,"90":-0.21034105122089386,"91":-0.031213315203785896,"92":-0.06625963747501373,"93":0.04337732866406441,"94":-0.1945706307888031,"95":0.027913035824894905,"96":-0.1912996768951416,"97":0.16338036954402924,"98":0.014390382915735245,"99":0.04281585291028023,"100":0.1536383330821991,"101":0.14628858864307404,"102":0.06043045222759247,"103":0.016838468611240387,"104":-0.14963169395923615,"105":0.08957473188638687,"106":-0.051493510603904724,"107":0.06954352557659149,"108":0.07956255972385406,"109":0.11139896512031555,"110":-0.01218357216566801,"111":0.3281012773513794,"112":-0.20634062588214874,"113":-0.23115718364715576,"114":0.13023331761360168,"115":0.1899171620607376,"116":0.2102920413017273,"117":-0.15286505222320557,"118":-0.06049031391739845}},"6":{"bias":-0.02295578084886074,"weights":{"0":-0.21694134175777435,"1":0.07443349808454514,"2":-0.058159708976745605,"3":-0.1983201950788498,"4":-0.10814104974269867,"5":-0.004672918934375048,"6":-0.050292618572711945,"7":0.12330865114927292,"8":-0.1285187304019928,"9":-0.047801945358514786,"10":-0.06535030901432037,"11":0.12971001863479614,"12":0.03951983153820038,"13":-0.05664635822176933,"14":-0.09001591801643372,"15":-0.1002362072467804,"16":-0.1311686635017395,"17":-0.14867985248565674,"18":0.010508673265576363,"19":0.11025401949882507,"20":-0.06455818563699722,"21":0.10772358626127243,"22":-0.12454637140035629,"23":0.1491273045539856,"24":-0.0025234485510736704,"25":0.07279665768146515,"26":0.15538179874420166,"27":-0.011443099938333035,"28":-0.1347309648990631,"29":-0.09728407114744186,"30":-0.019720278680324554,"31":-0.15969571471214294,"32":-0.15464100241661072,"33":0.01681596413254738,"34":-0.16016852855682373,"35":0.06782209873199463,"36":-0.16152597963809967,"37":0.06794025748968124,"38":-0.005181280896067619,"39":0.03266671672463417,"40":0.1766175776720047,"41":0.016661392524838448,"42":-0.07503842562437057,"43":0.020506449043750763,"44":0.1337294578552246,"45":-0.020656058564782143,"46":0.04775715619325638,"47":0.028071952983736992,"48":0.018373239785432816,"49":-0.08214234560728073,"50":0.09766291081905365,"51":-0.1909780502319336,"52":-0.17533022165298462,"53":0.0306391641497612,"54":-0.02947090193629265,"55":0.13201193511486053,"56":-0.15564197301864624,"57":0.18645329773426056,"58":0.1443587988615036,"59":-0.09169373661279678,"60":0.017051884904503822,"61":0.10530244559049606,"62":0.020959099754691124,"63":-0.11289459466934204,"64":0.024389484897255898,"65":-0.07116364687681198,"66":-0.008107705041766167,"67":-0.08319190889596939,"68":-0.023058993741869926,"69":0.08507966250181198,"70":-0.062365222722291946,"71":0.1831216812133789,"72":0.06587450951337814,"73":-0.002423935802653432,"74":0.02448381669819355,"75":0.2122982144355774,"76":0.0994768738746643,"77":0.1844560205936432,"78":-0.0583505779504776,"79":-0.0705765038728714,"80":0.09516175091266632,"81":-0.14839741587638855,"82":0.16288375854492188,"83":0.12752221524715424,"84":0.1664232462644577,"85":0.08814343810081482,"86":0.010099080391228199,"87":0.15944482386112213,"88":-0.10090532153844833,"89":0.00937636662274599,"90":-0.10239779204130173,"91":0.13404032588005066,"92":-0.15000639855861664,"93":-0.013133605010807514,"94":0.011294396594166756,"95":-0.19176964461803436,"96":0.04118415340781212,"97":-0.2111663818359375,"98":0.07857338339090347,"99":0.17895442247390747,"100":-0.014147450216114521,"101":-0.1903611123561859,"102":0.04257781058549881,"103":0.12994039058685303,"104":-0.14131779968738556,"105":0.11650535464286804,"106":0.08926255255937576,"107":-0.1637578010559082,"108":-0.22089087963104248,"109":-0.08454549312591553,"110":-0.07737606018781662,"111":-0.16144639253616333,"112":0.12811538577079773,"113":0.1061151996254921,"114":0.006313174031674862,"115":-0.002645856002345681,"116":-0.21030153334140778,"117":-0.20831002295017242,"118":0.1550101637840271}},"7":{"bias":0.11520280689001083,"weights":{"0":-0.007745734881609678,"1":0.17398867011070251,"2":0.13875310122966766,"3":0.16441220045089722,"4":0.17080745100975037,"5":-0.12136127799749374,"6":-0.03309882432222366,"7":0.05211056396365166,"8":-0.0012156894663348794,"9":-0.11664807796478271,"10":-0.15692706406116486,"11":0.18144287168979645,"12":0.014182709157466888,"13":-0.13768668472766876,"14":-0.10236457735300064,"15":0.14076726138591766,"16":-0.03731895610690117,"17":-0.1793285459280014,"18":-0.03547682985663414,"19":0.0023894363548606634,"20":-0.03169618546962738,"21":0.19579178094863892,"22":0.05675947666168213,"23":0.0544152595102787,"24":0.0896044448018074,"25":0.21682894229888916,"26":-0.22429139912128448,"27":-0.20518431067466736,"28":-0.12242428958415985,"29":-0.20785565674304962,"30":0.05108868330717087,"31":-0.030771052464842796,"32":0.15661044418811798,"33":-0.001911662402562797,"34":-0.1539429873228073,"35":-0.044627536088228226,"36":-0.09389591217041016,"37":0.1000051274895668,"38":-0.008812922053039074,"39":-0.10875243693590164,"40":-0.17031043767929077,"41":0.07604700326919556,"42":0.1656031608581543,"43":0.15659120678901672,"44":-0.16062107682228088,"45":-0.08218557387590408,"46":0.08706355839967728,"47":-0.04210006445646286,"48":0.19601458311080933,"49":-0.10127914696931839,"50":-0.07866917550563812,"51":-0.12862759828567505,"52":-0.06367643177509308,"53":0.12106972187757492,"54":0.24564658105373383,"55":0.09628253430128098,"56":0.0012353650527074933,"57":-0.23374979197978973,"58":-0.0635879635810852,"59":0.11453793197870255,"60":-0.23012559115886688,"61":-0.17604169249534607,"62":-0.12836676836013794,"63":0.0590028241276741,"64":-0.03234051540493965,"65":0.06267213821411133,"66":0.02749580331146717,"67":0.041432250291109085,"68":-0.11921069771051407,"69":0.05410703644156456,"70":-0.1730044186115265,"71":-0.13685929775238037,"72":-0.046079643070697784,"73":-0.14294560253620148,"74":-0.05222092568874359,"75":0.11380079388618469,"76":-0.1988765299320221,"77":0.025648651644587517,"78":-0.19117476046085358,"79":-0.09138400852680206,"80":-0.11688336730003357,"81":0.1437833309173584,"82":0.14784616231918335,"83":0.03705067187547684,"84":-0.03911963850259781,"85":-0.0843353345990181,"86":-0.08526138961315155,"87":0.10477244853973389,"88":0.06877686828374863,"89":-0.2118413746356964,"90":-0.24974825978279114,"91":-0.04608817771077156,"92":0.12078285962343216,"93":-0.11359424144029617,"94":-0.20158503949642181,"95":0.17034929990768433,"96":-0.21509401500225067,"97":-0.004099878016859293,"98":0.01723826862871647,"99":-0.0576658695936203,"100":-0.07265669107437134,"101":0.049705084413290024,"102":-0.22314493358135223,"103":0.13282015919685364,"104":0.008031994104385376,"105":0.06050458922982216,"106":-0.007412727456539869,"107":-0.08395622670650482,"108":-0.1552560031414032,"109":0.04351581260561943,"110":0.08442342281341553,"111":0.13524088263511658,"112":-0.1709948033094406,"113":0.13421539962291718,"114":0.07882538437843323,"115":0.03359202668070793,"116":-0.09526074677705765,"117":-0.07920143753290176,"118":-0.15482363104820251}},"8":{"bias":-0.028896382078528404,"weights":{"0":-0.002006579888984561,"1":-0.21917419135570526,"2":-0.1315697729587555,"3":0.006543178576976061,"4":-0.024426255375146866,"5":-0.15334293246269226,"6":0.046811118721961975,"7":-0.2049248218536377,"8":-0.22676309943199158,"9":-0.1311652809381485,"10":0.18575043976306915,"11":-0.28834253549575806,"12":0.49700507521629333,"13":-0.10041291266679764,"14":0.12436139583587646,"15":0.0723152607679367,"16":0.14351627230644226,"17":-0.058389224112033844,"18":-0.10248497873544693,"19":-0.009114484302699566,"20":-0.10976225137710571,"21":-0.17284822463989258,"22":-0.19973762333393097,"23":-0.11204484850168228,"24":-0.05689912661910057,"25":-0.38201528787612915,"26":0.03510458767414093,"27":0.23292230069637299,"28":-0.2574402689933777,"29":0.30690962076187134,"30":-0.1358972042798996,"31":-0.17196422815322876,"32":-0.017306126654148102,"33":0.0011892940383404493,"34":0.07487845420837402,"35":0.10006791353225708,"36":0.01859636977314949,"37":0.08680523186922073,"38":-0.2423718273639679,"39":-0.0610218420624733,"40":0.37934473156929016,"41":0.021969253197312355,"42":-0.11454962193965912,"43":-0.03884156420826912,"44":0.03576194494962692,"45":0.25596970319747925,"46":-0.5363990664482117,"47":0.1565086543560028,"48":-0.37339407205581665,"49":-0.13323599100112915,"50":-0.2316734790802002,"51":-0.03972572460770607,"52":0.127690389752388,"53":0.07593677937984467,"54":-0.008665432222187519,"55":0.2756464183330536,"56":0.022408192977309227,"57":0.2880404591560364,"58":0.07211589813232422,"59":0.33615294098854065,"60":0.2672393023967743,"61":-0.12567350268363953,"62":-0.34829697012901306,"63":-0.27867591381073,"64":-0.048414915800094604,"65":-0.27801451086997986,"66":-0.4238540232181549,"67":-0.3303344249725342,"68":0.06436777859926224,"69":-0.3325837254524231,"70":0.14189593493938446,"71":-0.041748013347387314,"72":0.14484092593193054,"73":0.32477641105651855,"74":0.25703397393226624,"75":0.2644619047641754,"76":0.09117705374956131,"77":0.26885005831718445,"78":0.16311025619506836,"79":0.27739420533180237,"80":-0.0772416889667511,"81":0.005723502486944199,"82":0.026119643822312355,"83":-0.02115640416741371,"84":-0.038878876715898514,"85":-0.037939950823783875,"86":0.20130160450935364,"87":-0.06643176823854446,"88":-0.16645315289497375,"89":0.2451033741235733,"90":0.2741730511188507,"91":0.11409091204404831,"92":0.12609636783599854,"93":0.016067320480942726,"94":0.15985411405563354,"95":-0.007322465069591999,"96":0.073982372879982,"97":0.18888479471206665,"98":-0.35402950644493103,"99":0.1093376874923706,"100":-0.015718942508101463,"101":0.1518387347459793,"102":0.18032346665859222,"103":-0.07803859561681747,"104":0.01059774775058031,"105":0.23140504956245422,"106":0.10251571238040924,"107":0.14577360451221466,"108":-0.0722549557685852,"109":-0.0898258239030838,"110":-0.19787368178367615,"111":-0.43084168434143066,"112":0.21559396386146545,"113":0.12667851150035858,"114":0.1534191519021988,"115":-0.2805745005607605,"116":-0.08234002441167831,"117":0.16035188734531403,"118":0.03470885008573532}},"9":{"bias":-0.004431433975696564,"weights":{"0":-0.07379341125488281,"1":-0.20589473843574524,"2":-0.18897384405136108,"3":0.09966755658388138,"4":-0.07507569342851639,"5":-0.25993219017982483,"6":0.02289932779967785,"7":0.11303232610225677,"8":-0.2607651650905609,"9":0.04656723141670227,"10":-0.0008502898272126913,"11":-0.22512178122997284,"12":0.03633973002433777,"13":0.14618165791034698,"14":0.045247577130794525,"15":-0.11560875922441483,"16":0.11155945062637329,"17":0.026568103581666946,"18":-0.13289958238601685,"19":0.0571860671043396,"20":-0.23673364520072937,"21":0.10080470889806747,"22":0.06024854630231857,"23":-0.11135329306125641,"24":0.0005046268342994153,"25":-0.003743434092029929,"26":0.23517169058322906,"27":0.09574448317289352,"28":-0.01887579821050167,"29":0.08377919346094131,"30":-0.05892269313335419,"31":0.10694466531276703,"32":0.15465472638607025,"33":-0.12021594494581223,"34":0.19402992725372314,"35":-0.11696767061948776,"36":-0.17998798191547394,"37":0.12210223823785782,"38":-0.20481978356838226,"39":0.08503714203834534,"40":-0.09694071114063263,"41":-0.14632685482501984,"42":-0.05782710015773773,"43":-0.14841896295547485,"44":-0.012797839008271694,"45":-0.0348915234208107,"46":-0.342570960521698,"47":0.24678976833820343,"48":-0.3362981975078583,"49":-0.09112609922885895,"50":-0.16387821733951569,"51":-0.055073440074920654,"52":0.12785935401916504,"53":0.16911424696445465,"54":-0.1747857928276062,"55":0.18386419117450714,"56":0.12890863418579102,"57":0.3169798254966736,"58":0.2383909970521927,"59":0.02509257011115551,"60":0.27109360694885254,"61":0.05344240739941597,"62":-0.21704675257205963,"63":-0.009082059375941753,"64":0.07689882069826126,"65":0.03233691677451134,"66":-0.25151219964027405,"67":-0.22666104137897491,"68":0.04639068618416786,"69":-0.055273689329624176,"70":0.1637345254421234,"71":0.25394120812416077,"72":0.04250752553343773,"73":0.0612221397459507,"74":0.02456636168062687,"75":-0.011141462251543999,"76":0.321247398853302,"77":-0.009519553743302822,"78":-0.08370551466941833,"79":0.07726249098777771,"80":0.023757871240377426,"81":-0.09553967416286469,"82":-0.13714373111724854,"83":-0.12944628298282623,"84":0.02596110664308071,"85":0.07257701456546783,"86":0.11843657493591309,"87":0.03000449948012829,"88":-0.17797987163066864,"89":0.04467877745628357,"90":0.04383528605103493,"91":0.03854571282863617,"92":-0.15289095044136047,"93":-0.032437764108181,"94":0.2353723794221878,"95":0.13436894118785858,"96":0.2791912257671356,"97":-0.008829197846353054,"98":-0.0854305550456047,"99":0.003667735494673252,"100":-0.11315956711769104,"101":0.09121016412973404,"102":-0.08683081716299057,"103":0.03308727219700813,"104":-0.19847175478935242,"105":0.05063767731189728,"106":0.22827237844467163,"107":-0.0039711943827569485,"108":-0.13611653447151184,"109":0.11480321735143661,"110":-0.12791214883327484,"111":-0.27583715319633484,"112":0.009224838577210903,"113":0.1483362317085266,"114":-0.039418961852788925,"115":0.019680727273225784,"116":-0.1875552237033844,"117":0.0778409093618393,"118":0.020000560209155083}},"10":{"bias":-0.1106305867433548,"weights":{"0":0.024133486673235893,"1":-0.2010721117258072,"2":-0.14652380347251892,"3":0.02851702645421028,"4":0.20196521282196045,"5":0.04158628731966019,"6":0.0024981654714792967,"7":-0.04450086131691933,"8":-0.04152136296033859,"9":-0.2143101841211319,"10":-0.05166193097829819,"11":0.020484009757637978,"12":0.03307317942380905,"13":0.06264524906873703,"14":0.06194186955690384,"15":-0.047052428126335144,"16":-0.04484162852168083,"17":0.1544678658246994,"18":0.1377907544374466,"19":-0.12369591742753983,"20":-0.16361874341964722,"21":0.01677241362631321,"22":0.09193126112222672,"23":0.0011555699165910482,"24":0.07172531634569168,"25":-0.0558687187731266,"26":-0.11890096962451935,"27":0.08307832479476929,"28":-0.005040336400270462,"29":0.18874330818653107,"30":0.025673463940620422,"31":0.03316262736916542,"32":-0.026573970913887024,"33":-0.17063704133033752,"34":0.07438036799430847,"35":0.04024644196033478,"36":0.15503326058387756,"37":0.023569989949464798,"38":0.14649827778339386,"39":-0.12067656219005585,"40":-0.0852181538939476,"41":-0.03292004019021988,"42":-0.10491201281547546,"43":-0.2117331326007843,"44":0.08413469791412354,"45":0.011257910169661045,"46":-0.11623287200927734,"47":-0.19075021147727966,"48":-0.0789465382695198,"49":-0.053356122225522995,"50":-0.10504518449306488,"51":-0.007666394580155611,"52":0.09772703796625137,"53":0.08902084082365036,"54":-0.05438041314482689,"55":-0.13409574329853058,"56":0.16528020799160004,"57":0.1903069019317627,"58":0.11095087230205536,"59":0.16832195222377777,"60":0.10325910151004791,"61":-0.0006335087236948311,"62":0.1132424920797348,"63":-0.19112451374530792,"64":-0.0560777522623539,"65":-0.056211549788713455,"66":-0.2506921887397766,"67":-0.225823774933815,"68":-0.15757602453231812,"69":-0.1910003423690796,"70":0.15240280330181122,"71":-0.07259149849414825,"72":0.15720418095588684,"73":0.11370497941970825,"74":0.21625909209251404,"75":-0.017067644745111465,"76":-0.1525009572505951,"77":-0.07690157741308212,"78":0.055113211274147034,"79":-0.02501128986477852,"80":0.19997315108776093,"81":-0.08660932630300522,"82":-0.18243508040905,"83":0.015403329394757748,"84":0.17379780113697052,"85":-0.17575812339782715,"86":-0.0977700799703598,"87":0.10342574864625931,"88":-0.16186076402664185,"89":0.11631149053573608,"90":-0.15119004249572754,"91":0.20452216267585754,"92":0.13117364048957825,"93":0.024423593655228615,"94":-0.08361964672803879,"95":0.1067018061876297,"96":0.07999789714813232,"97":0.07973242551088333,"98":-0.1966361552476883,"99":0.13181495666503906,"100":-0.17790095508098602,"101":-0.06224782019853592,"102":-0.167671337723732,"103":0.08945446461439133,"104":0.09016596525907516,"105":-0.039682552218437195,"106":-0.15866652131080627,"107":0.010021836496889591,"108":0.16877518594264984,"109":0.16755932569503784,"110":0.024106286466121674,"111":-0.14266513288021088,"112":-0.13049480319023132,"113":0.06974340975284576,"114":0.13833066821098328,"115":-0.0020396572072058916,"116":-0.1467059701681137,"117":0.08520360291004181,"118":-0.1673230677843094}},"11":{"bias":-0.12915246188640594,"weights":{"0":-0.19911427795886993,"1":0.04666362330317497,"2":-0.2558560073375702,"3":0.07875269651412964,"4":0.21191376447677612,"5":-0.20877347886562347,"6":-0.028712598606944084,"7":-0.26240894198417664,"8":-0.2599199116230011,"9":0.14895223081111908,"10":0.17094673216342926,"11":-0.20916059613227844,"12":0.36742404103279114,"13":-0.254891961812973,"14":-0.011867722496390343,"15":0.21117505431175232,"16":-0.11971255391836166,"17":-0.08164549618959427,"18":0.12864211201667786,"19":0.20137856900691986,"20":-0.011486588977277279,"21":-0.11869711428880692,"22":0.05174477398395538,"23":0.008804699406027794,"24":0.16962112486362457,"25":-0.05774856358766556,"26":0.05476382374763489,"27":-0.15158425271511078,"28":-0.16859708726406097,"29":0.015305195935070515,"30":0.08521775901317596,"31":-0.22302916646003723,"32":-0.15791693329811096,"33":0.06937188655138016,"34":-0.061568547040224075,"35":-0.07977031171321869,"36":0.008933846838772297,"37":0.24065648019313812,"38":0.03397929295897484,"39":-0.07515795528888702,"40":0.016502391546964645,"41":-0.20956110954284668,"42":-0.04337601736187935,"43":0.12375789135694504,"44":-0.11044171452522278,"45":0.15746966004371643,"46":-0.3990716338157654,"47":0.1679094135761261,"48":-0.17045354843139648,"49":-0.04209047928452492,"50":-0.2858353853225708,"51":0.1341363489627838,"52":0.17505936324596405,"53":-0.03468381613492966,"54":0.03953199088573456,"55":0.24933671951293945,"56":0.03686165809631348,"57":0.36272090673446655,"58":0.31373441219329834,"59":-0.07450182735919952,"60":0.12140385806560516,"61":-0.12736482918262482,"62":-0.10254772007465363,"63":-0.23375540971755981,"64":-0.15931883454322815,"65":-0.09768667817115784,"66":-0.3601868450641632,"67":-0.3564783036708832,"68":-0.0790456160902977,"69":-0.08032907545566559,"70":0.18497979640960693,"71":0.09521838277578354,"72":0.01174768153578043,"73":0.05085474252700806,"74":0.26345595717430115,"75":0.23614412546157837,"76":0.28167396783828735,"77":0.1747220903635025,"78":0.2656015455722809,"79":0.27934667468070984,"80":0.18699035048484802,"81":-0.1524176001548767,"82":-0.10496460646390915,"83":0.22335898876190186,"84":0.0018445741152390838,"85":0.05963145196437836,"86":-0.06327062100172043,"87":-0.05027278512716293,"88":-0.047432754188776016,"89":-0.06108139827847481,"90":0.24014969170093536,"91":0.23244017362594604,"92":-0.13371528685092926,"93":0.06910423934459686,"94":0.09196537733078003,"95":-0.07264082878828049,"96":0.23505748808383942,"97":0.18744808435440063,"98":0.047619882971048355,"99":0.11016532778739929,"100":0.0039242771454155445,"101":0.09247606992721558,"102":0.006592749617993832,"103":-0.1724962294101715,"104":-0.20968222618103027,"105":0.08034567534923553,"106":-0.10465190559625626,"107":0.05424586310982704,"108":0.020497474819421768,"109":-0.15470556914806366,"110":-0.1553577035665512,"111":-0.4392223656177521,"112":0.1310064196586609,"113":0.008345896378159523,"114":0.11037740856409073,"115":-0.42894506454467773,"116":-0.04290725290775299,"117":0.17078548669815063,"118":0.03970198333263397}},"12":{"bias":0.0031704227440059185,"weights":{"0":0.001093873055651784,"1":0.2688167989253998,"2":0.0382721982896328,"3":0.1000508964061737,"4":-0.04902833327651024,"5":0.21428197622299194,"6":0.10015653073787689,"7":-0.04101666435599327,"8":0.24187088012695312,"9":-0.2415471076965332,"10":-0.15708403289318085,"11":0.4035555124282837,"12":-0.4223625659942627,"13":0.0007996797212399542,"14":-0.07968398928642273,"15":-0.04911627620458603,"16":-0.1645757406949997,"17":-0.08824671804904938,"18":-0.09395234286785126,"19":-0.061599571257829666,"20":0.2735915184020996,"21":0.034218642860651016,"22":0.11871620267629623,"23":-0.12644444406032562,"24":0.2016504555940628,"25":0.2918073236942291,"26":-0.2999739646911621,"27":-0.03782087191939354,"28":0.219588503241539,"29":-0.12710237503051758,"30":0.03575286641716957,"31":-0.11847970634698868,"32":-0.17316834628582,"33":-0.1179119423031807,"34":-0.18112853169441223,"35":-0.23554685711860657,"36":0.10207473486661911,"37":0.029869763180613518,"38":0.04240464046597481,"39":0.02664201706647873,"40":-0.05881262943148613,"41":0.1467059701681137,"42":0.29047101736068726,"43":-0.22233444452285767,"44":-0.09227503836154938,"45":-0.0057070874609053135,"46":0.3294981122016907,"47":0.005450259428471327,"48":0.1841433048248291,"49":0.1884915977716446,"50":0.2356007695198059,"51":0.12084297090768814,"52":-0.06989698857069016,"53":-0.08665032684803009,"54":-0.01168107520788908,"55":-0.21361415088176727,"56":-0.16087029874324799,"57":-0.43848729133605957,"58":-0.2790079116821289,"59":-0.11262974888086319,"60":-0.42945337295532227,"61":0.0921873226761818,"62":0.10888662189245224,"63":0.28116661310195923,"64":-0.09355303645133972,"65":0.1959264725446701,"66":0.16703325510025024,"67":0.34416255354881287,"68":-0.11342095583677292,"69":0.1034805178642273,"70":-0.22308501601219177,"71":-0.1304626613855362,"72":-0.06023889407515526,"73":-0.05455216392874718,"74":-0.1391892433166504,"75":-0.082677461206913,"76":-0.32602593302726746,"77":-0.20172236859798431,"78":-0.20410874485969543,"79":-0.13277369737625122,"80":-0.05451757088303566,"81":0.10146329551935196,"82":0.21117155253887177,"83":-0.1516445428133011,"84":-0.01788163371384144,"85":0.25825777649879456,"86":-0.0045056273229420185,"87":0.04760918766260147,"88":0.191142737865448,"89":-0.048117004334926605,"90":-0.21031105518341064,"91":-0.1909802258014679,"92":0.1359725445508957,"93":0.18398809432983398,"94":-0.2075457125902176,"95":0.052422720938920975,"96":-0.23477426171302795,"97":0.11641759425401688,"98":0.1040261909365654,"99":0.08470222353935242,"100":-0.15424475073814392,"101":0.08071710169315338,"102":-0.3082883954048157,"103":0.34168562293052673,"104":0.07614338397979736,"105":-0.05173904821276665,"106":-0.2776615619659424,"107":0.006387361325323582,"108":-0.023541921749711037,"109":0.1407482922077179,"110":0.2546226978302002,"111":0.33334293961524963,"112":-0.1163654550909996,"113":-0.2297944575548172,"114":0.11154849827289581,"115":0.30700749158859253,"116":0.11300157755613327,"117":-0.06939484924077988,"118":0.09665695577859879}},"13":{"bias":0.03312329947948456,"weights":{"0":-0.03913368657231331,"1":0.22038929164409637,"2":0.19793003797531128,"3":-0.03042982704937458,"4":-0.03014300763607025,"5":0.24092257022857666,"6":0.14877280592918396,"7":-0.04273276403546333,"8":0.22919262945652008,"9":-0.2061028778553009,"10":0.00955893937498331,"11":0.2754102349281311,"12":-0.24492911994457245,"13":-0.10015711188316345,"14":-0.20101457834243774,"15":-0.26332932710647583,"16":0.05520142987370491,"17":-0.17745931446552277,"18":-0.07354066520929337,"19":-0.1234094575047493,"20":0.37911733984947205,"21":0.035651035606861115,"22":0.16236284375190735,"23":-0.1514011174440384,"24":0.10673283040523529,"25":0.34044843912124634,"26":-0.07123802602291107,"27":-0.03165389597415924,"28":0.24324114620685577,"29":-0.18779315054416656,"30":0.10601577907800674,"31":0.21892252564430237,"32":-0.003115156665444374,"33":-0.14862310886383057,"34":0.09966608881950378,"35":-0.18352994322776794,"36":0.29111403226852417,"37":-0.277500718832016,"38":0.17420808970928192,"39":0.12378136813640594,"40":-0.14134693145751953,"41":-0.00901874154806137,"42":0.2878164052963257,"43":0.1135680302977562,"44":-0.0034782947041094303,"45":-0.03630111366510391,"46":0.417033851146698,"47":-0.07815646380186081,"48":0.48921945691108704,"49":0.13277886807918549,"50":0.3020275831222534,"51":0.10931200534105301,"52":0.04866666719317436,"53":-0.09926028549671173,"54":0.19462943077087402,"55":-0.3024498522281647,"56":-0.23793771862983704,"57":-0.4433215260505676,"58":-0.17951273918151855,"59":-0.1403309851884842,"60":-0.46526163816452026,"61":-0.007936113514006138,"62":0.17396827042102814,"63":0.05480767786502838,"64":0.19897760450839996,"65":0.3907226622104645,"66":0.16005584597587585,"67":0.09794016927480698,"68":0.12882335484027863,"69":0.012683684006333351,"70":-0.1905607134103775,"71":-0.14281579852104187,"72":-0.12418635934591293,"73":-0.31408873200416565,"74":-0.264868825674057,"75":-0.4113140106201172,"76":-0.27276211977005005,"77":-0.22370563447475433,"78":-0.2689283788204193,"79":-0.20281511545181274,"80":0.03815716505050659,"81":0.19098009169101715,"82":-0.12772627174854279,"83":-0.17684978246688843,"84":-0.2921443283557892,"85":0.25550901889801025,"86":-0.08882052451372147,"87":0.11219676584005356,"88":-0.17986315488815308,"89":-0.1270645260810852,"90":-0.05704832449555397,"91":-0.06321625411510468,"92":0.03355199471116066,"93":-0.10443420708179474,"94":-0.02847874164581299,"95":0.08405274897813797,"96":-0.10065243393182755,"97":0.01979423686861992,"98":0.1106203943490982,"99":-0.31726840138435364,"100":-0.012852302752435207,"101":-0.19074933230876923,"102":-0.2661559283733368,"103":0.36924365162849426,"104":0.16536836326122284,"105":-0.009410484693944454,"106":-0.19560864567756653,"107":-0.0738491415977478,"108":0.08904875069856644,"109":0.257833331823349,"110":0.1765318065881729,"111":0.35059845447540283,"112":-0.2938086688518524,"113":-0.03147130087018013,"114":-0.06245028227567673,"115":0.3316507339477539,"116":0.17882397770881653,"117":0.04827488586306572,"118":-0.03611535578966141}},"14":{"bias":-0.041329968720674515,"weights":{"0":-0.026899242773652077,"1":0.08636839687824249,"2":-0.07428377866744995,"3":0.09614759683609009,"4":-0.01822688803076744,"5":-0.2689109742641449,"6":-0.022538641467690468,"7":-0.14250746369361877,"8":-0.38779416680336,"9":0.036146990954875946,"10":0.1795528531074524,"11":-0.3811635375022888,"12":0.3396420180797577,"13":0.04898792877793312,"14":0.16376176476478577,"15":0.22748543322086334,"16":-0.09683585166931152,"17":0.16109341382980347,"18":0.26717236638069153,"19":0.2995116710662842,"20":-0.23833325505256653,"21":-0.2489849328994751,"22":-0.04952651262283325,"23":-0.1400497704744339,"24":0.07237044721841812,"25":-0.43043816089630127,"26":0.13709238171577454,"27":-0.0377877876162529,"28":-0.15335479378700256,"29":0.28802406787872314,"30":-0.002586807357147336,"31":-0.1139431819319725,"32":0.14191901683807373,"33":0.13737735152244568,"34":-0.0695464089512825,"35":0.2549913227558136,"36":-0.17110784351825714,"37":0.14628106355667114,"38":-0.3374987840652466,"39":-0.07532340288162231,"40":0.20347072184085846,"41":-0.20217572152614594,"42":-0.09679003059864044,"43":0.19620564579963684,"44":-0.14604689180850983,"45":0.051838018000125885,"46":-0.3195892870426178,"47":-0.039040178060531616,"48":-0.40413495898246765,"49":-0.27081432938575745,"50":0.04410136491060257,"51":-0.058851540088653564,"52":0.06735818833112717,"53":-0.092729352414608,"54":-0.2890995442867279,"55":0.15336748957633972,"56":0.20328842103481293,"57":0.15768484771251678,"58":0.25371497869491577,"59":-0.025742094963788986,"60":0.4188709557056427,"61":-0.06303054839372635,"62":-0.23486924171447754,"63":-0.18337561190128326,"64":0.10263682156801224,"65":-0.2352200597524643,"66":-0.428061842918396,"67":-0.29788970947265625,"68":-0.0907486081123352,"69":-0.2381259649991989,"70":0.1384236365556717,"71":0.0028529539704322815,"72":0.06627848744392395,"73":0.2185540348291397,"74":0.27675703167915344,"75":0.381938636302948,"76":0.2444206327199936,"77":0.13209623098373413,"78":0.11149238795042038,"79":0.338609516620636,"80":0.03698194399476051,"81":0.12565360963344574,"82":-0.10902926325798035,"83":-0.08817093074321747,"84":0.061867497861385345,"85":-0.10297311097383499,"86":-0.02857264317572117,"87":0.01212171372026205,"88":-0.0234786756336689,"89":0.16086016595363617,"90":0.052681367844343185,"91":0.4478561580181122,"92":0.17941929399967194,"93":0.10536849498748779,"94":0.24140781164169312,"95":-0.0016712140059098601,"96":0.38604027032852173,"97":-0.1386445164680481,"98":-0.13693515956401825,"99":0.0139508917927742,"100":-0.20407706499099731,"101":0.14343973994255066,"102":0.3088410198688507,"103":-0.1071871742606163,"104":0.1475573033094406,"105":0.17066450417041779,"106":0.14984628558158875,"107":-0.02614842727780342,"108":-0.11827787756919861,"109":-0.263639897108078,"110":-0.33964967727661133,"111":-0.5157056450843811,"112":-0.12356550991535187,"113":-0.0039004087448120117,"114":0.2139793336391449,"115":-0.21267583966255188,"116":0.036184344440698624,"117":-0.1370476633310318,"118":0.1944524347782135}},"15":{"bias":0.11632823944091797,"weights":{"0":0.22501502931118011,"1":0.03661750257015228,"2":-0.165330708026886,"3":0.1684197187423706,"4":-0.08281360566616058,"5":0.14493709802627563,"6":-0.002972174435853958,"7":-0.025435563176870346,"8":0.07733441144227982,"9":-0.20342984795570374,"10":-0.12293031066656113,"11":0.3207005262374878,"12":-0.31179073452949524,"13":0.0930454209446907,"14":-0.2504657804965973,"15":0.14593765139579773,"16":0.14649201929569244,"17":-0.12701338529586792,"18":-0.030600646510720253,"19":-0.00808909721672535,"20":0.29288986325263977,"21":0.173816978931427,"22":0.005511047784239054,"23":0.15143977105617523,"24":0.21474166214466095,"25":0.24714744091033936,"26":-0.20766907930374146,"27":0.000507685705088079,"28":0.2072743922472,"29":-0.10809984058141708,"30":0.18293814361095428,"31":-0.03847825154662132,"32":-0.037169232964515686,"33":-0.14579004049301147,"34":-0.060983553528785706,"35":-0.17822501063346863,"36":0.2613939940929413,"37":-0.05827704071998596,"38":0.029670465737581253,"39":-0.08348171412944794,"40":-0.1737014800310135,"41":0.06545520573854446,"42":-0.020000264048576355,"43":-0.03135393187403679,"44":-0.02044668048620224,"45":0.03642846271395683,"46":0.2889787554740906,"47":0.13589009642601013,"48":0.3666326701641083,"49":0.12674899399280548,"50":0.08621719479560852,"51":-0.15602640807628632,"52":-0.15957936644554138,"53":-0.030375126749277115,"54":0.21935021877288818,"55":0.052475638687610626,"56":-0.15867310762405396,"57":-0.001533332047984004,"58":-0.044730424880981445,"59":-0.18815617263317108,"60":-0.17614172399044037,"61":0.048672035336494446,"62":0.2501489222049713,"63":-0.02579992264509201,"64":0.15109805762767792,"65":0.06661093980073929,"66":0.03465705364942551,"67":-0.013218516483902931,"68":0.08831841498613358,"69":0.220906063914299,"70":-0.1225491538643837,"71":0.1338983029127121,"72":0.04686790332198143,"73":-0.2155277132987976,"74":-0.10306413471698761,"75":-0.06092837080359459,"76":-0.20357538759708405,"77":-0.2340901643037796,"78":-0.026258621364831924,"79":-0.2032199203968048,"80":-0.20209039747714996,"81":0.17455549538135529,"82":-0.029634134843945503,"83":-0.07976201921701431,"84":-0.03532622754573822,"85":-0.08818265050649643,"86":0.03580055385828018,"87":-0.14486588537693024,"88":0.011791746132075787,"89":0.08916322886943817,"90":-0.10342186689376831,"91":-0.15356206893920898,"92":-0.19996137917041779,"93":-0.19325511157512665,"94":-0.1494813859462738,"95":-0.1944616287946701,"96":-0.09736309200525284,"97":0.14840707182884216,"98":-0.12872281670570374,"99":-0.007769504562020302,"100":-0.10501644015312195,"101":-0.05509309470653534,"102":-0.2679395377635956,"103":-0.06610586494207382,"104":0.20313479006290436,"105":-0.10189215838909149,"106":0.07775941491127014,"107":0.011946506798267365,"108":0.09251122921705246,"109":-0.10155300796031952,"110":-0.033353108912706375,"111":0.08529678732156754,"112":-0.08804101496934891,"113":0.07946278154850006,"114":-0.10308315604925156,"115":0.1851980835199356,"116":0.04524713754653931,"117":-0.02523774281144142,"118":-0.21095123887062073}},"16":{"bias":0.17413175106048584,"weights":{"0":0.056829266250133514,"1":-0.030501551926136017,"2":-0.14298640191555023,"3":-0.11408945918083191,"4":-0.053629495203495026,"5":-0.014031417667865753,"6":-0.14594626426696777,"7":-0.16254286468029022,"8":-0.00655716098845005,"9":0.04358707368373871,"10":0.10528591275215149,"11":-0.16144326329231262,"12":0.12590667605400085,"13":0.10440269112586975,"14":0.13000869750976562,"15":0.18945728242397308,"16":-0.12597467005252838,"17":-0.18507809937000275,"18":0.17669646441936493,"19":-0.05384838581085205,"20":0.05213334038853645,"21":0.02667497657239437,"22":-0.09131094068288803,"23":-0.047036800533533096,"24":-0.08858761936426163,"25":-0.26200971007347107,"26":0.02622336708009243,"27":0.016191285103559494,"28":0.13638617098331451,"29":-0.11995501071214676,"30":-0.16407573223114014,"31":-0.028919344767928123,"32":-0.17519688606262207,"33":-0.07364317029714584,"34":0.1836910843849182,"35":0.10349157452583313,"36":-0.15080998837947845,"37":-0.094805046916008,"38":-0.1935180425643921,"39":-0.026881981641054153,"40":-0.11164920777082443,"41":-0.18112201988697052,"42":0.01818070188164711,"43":0.007189575117081404,"44":-0.1607389599084854,"45":0.08412445336580276,"46":-0.3151993751525879,"47":-0.1228000670671463,"48":-0.2685191035270691,"49":-0.202285036444664,"50":0.04644208401441574,"51":0.17612722516059875,"52":0.0544511042535305,"53":-0.17379380762577057,"54":-0.1760532557964325,"55":0.15394280850887299,"56":0.10007182508707047,"57":0.2375451773405075,"58":0.1616036593914032,"59":0.1497473120689392,"60":0.015214846469461918,"61":0.05257255584001541,"62":-0.028417911380529404,"63":-0.17649802565574646,"64":0.12247492372989655,"65":-0.0626947432756424,"66":0.07909389585256577,"67":0.061479948461055756,"68":-0.07425972074270248,"69":-0.05822696536779404,"70":-0.14267924427986145,"71":-0.088694266974926,"72":-0.07284452021121979,"73":0.015010957606136799,"74":-0.09045731276273727,"75":-0.07869778573513031,"76":0.19447457790374756,"77":0.18298283219337463,"78":-0.028679635375738144,"79":0.12188488990068436,"80":0.11008230596780777,"81":-0.2080630660057068,"82":-0.11865011602640152,"83":0.00455288402736187,"84":-0.10362265259027481,"85":0.05636075511574745,"86":0.14448413252830505,"87":-0.11629132926464081,"88":0.09407904744148254,"89":0.08767968416213989,"90":-0.06503944844007492,"91":-0.07843131572008133,"92":0.09195297956466675,"93":-0.02961198054254055,"94":0.07382570207118988,"95":0.20522798597812653,"96":0.04409581050276756,"97":0.04219432547688484,"98":0.05880139768123627,"99":0.212881401181221,"100":0.029985889792442322,"101":0.13872259855270386,"102":0.18630123138427734,"103":-0.25892874598503113,"104":0.03636392205953598,"105":0.07513315230607986,"106":0.18399617075920105,"107":0.17534543573856354,"108":-0.11904161423444748,"109":-0.011016469448804855,"110":-0.04075806215405464,"111":-0.3095962405204773,"112":0.004640710074454546,"113":-0.15739348530769348,"114":-0.10176070779561996,"115":0.024509962648153305,"116":0.044047996401786804,"117":0.054378967732191086,"118":0.10217349231243134}},"17":{"bias":0.07237780839204788,"weights":{"0":-0.09272582828998566,"1":-0.07259929180145264,"2":0.1346990168094635,"3":-0.08361245691776276,"4":0.0335233211517334,"5":0.09650010615587234,"6":-0.12767310440540314,"7":0.16476687788963318,"8":0.16373975574970245,"9":0.05744456872344017,"10":-0.1713041216135025,"11":-0.1350434273481369,"12":0.06447964161634445,"13":-0.14004069566726685,"14":0.15202903747558594,"15":-0.1548348069190979,"16":-0.17345358431339264,"17":-0.16723182797431946,"18":-0.14530164003372192,"19":-0.016732674092054367,"20":-0.13139989972114563,"21":-0.07152831554412842,"22":0.15643875300884247,"23":0.06861741095781326,"24":0.005152014549821615,"25":-0.19761310517787933,"26":0.006793277338147163,"27":-0.16960589587688446,"28":-0.029853785410523415,"29":0.17553333938121796,"30":0.07078537344932556,"31":0.06456450372934341,"32":-0.11476587504148483,"33":-0.2192484736442566,"34":0.0865672156214714,"35":0.1646520048379898,"36":-0.13436205685138702,"37":0.10924133658409119,"38":0.1852051466703415,"39":0.1470118910074234,"40":-0.2223706841468811,"41":-0.1372089982032776,"42":-0.1722128540277481,"43":-0.09585858881473541,"44":-0.07603108137845993,"45":-0.17461363971233368,"46":-0.10460925102233887,"47":-0.19802239537239075,"48":-0.025446724146604538,"49":-0.11837822198867798,"50":0.11607447266578674,"51":-0.022704696282744408,"52":0.030942533165216446,"53":0.0939282774925232,"54":0.17570608854293823,"55":0.10581634938716888,"56":0.0005049306200817227,"57":-0.14305923879146576,"58":-0.23063577711582184,"59":-0.06918127834796906,"60":0.1340305060148239,"61":-0.11851463466882706,"62":0.10592655837535858,"63":-0.041128624230623245,"64":0.03416014090180397,"65":-0.17141111195087433,"66":-0.07300782948732376,"67":0.06277890503406525,"68":0.10121806710958481,"69":-0.14108581840991974,"70":0.06942577660083771,"71":0.15607264637947083,"72":0.11631812155246735,"73":-0.14729084074497223,"74":-0.14413656294345856,"75":-0.20251542329788208,"76":0.11058875918388367,"77":-0.19175729155540466,"78":-0.08429263532161713,"79":-0.1487380862236023,"80":-0.0071260095573961735,"81":0.08545935153961182,"82":-0.16561748087406158,"83":-0.09162288904190063,"84":-0.03127717599272728,"85":0.0010137555655092,"86":-0.17448754608631134,"87":-0.18303893506526947,"88":0.16285037994384766,"89":-0.041018690913915634,"90":0.04037514701485634,"91":-0.0730687826871872,"92":0.09148043394088745,"93":-0.04254504293203354,"94":-0.030586596578359604,"95":-0.08221661299467087,"96":-0.1429164707660675,"97":0.0631851851940155,"98":0.04654001072049141,"99":-0.18619577586650848,"100":0.06304287910461426,"101":-0.12083185464143753,"102":-0.01119905710220337,"103":0.12356758117675781,"104":-0.1784869134426117,"105":0.05999628081917763,"106":0.1272139698266983,"107":-0.03829900547862053,"108":-0.19025179743766785,"109":-0.03157132491469383,"110":-0.11673258244991302,"111":-0.10875659435987473,"112":-0.0643259659409523,"113":-0.10326161235570908,"114":-0.13977940380573273,"115":0.06831193715333939,"116":0.16480520367622375,"117":0.09390747547149658,"118":-0.035021811723709106}},"18":{"bias":0.09449276328086853,"weights":{"0":-0.03752574324607849,"1":0.21615253388881683,"2":0.14574721455574036,"3":-0.1147780492901802,"4":-0.2431955635547638,"5":0.19731317460536957,"6":-0.0566319078207016,"7":0.09476792812347412,"8":0.32943686842918396,"9":-0.14599595963954926,"10":-0.06960996240377426,"11":0.3758809268474579,"12":-0.1856503188610077,"13":-0.05147131159901619,"14":-0.15805698931217194,"15":-0.02623467706143856,"16":0.20716093480587006,"17":-0.013094713911414146,"18":0.07705391943454742,"19":-0.3260382115840912,"20":0.17165866494178772,"21":0.10323500633239746,"22":0.10657981038093567,"23":-0.09837757796049118,"24":0.23380015790462494,"25":0.39759400486946106,"26":-0.35792553424835205,"27":-0.19602811336517334,"28":0.0530109666287899,"29":-0.21513107419013977,"30":-0.022159498184919357,"31":-0.1162402480840683,"32":-0.05741123482584953,"33":-0.16717691719532013,"34":-0.12848418951034546,"35":-0.16664457321166992,"36":0.2454649806022644,"37":0.0682644248008728,"38":0.3786574602127075,"39":0.10648392140865326,"40":-0.22954078018665314,"41":-0.10931722819805145,"42":0.3298628330230713,"43":0.13713222742080688,"44":0.03160357102751732,"45":-0.05316845327615738,"46":0.557278573513031,"47":-0.021800464019179344,"48":0.545300304889679,"49":0.24826465547084808,"50":0.29117506742477417,"51":0.030743638053536415,"52":-0.12869489192962646,"53":0.11118832975625992,"54":0.03615004941821098,"55":-0.22550320625305176,"56":-0.13701516389846802,"57":-0.4213719666004181,"58":-0.4353075921535492,"59":-0.3367600739002228,"60":-0.28400298953056335,"61":-0.11689700186252594,"62":0.2270176261663437,"63":-0.03285261243581772,"64":-0.0973614752292633,"65":0.4215896725654602,"66":0.1835290789604187,"67":0.23940041661262512,"68":-0.030577687546610832,"69":0.2417048066854477,"70":-0.15003129839897156,"71":0.032008811831474304,"72":-0.27061545848846436,"73":-0.2661156952381134,"74":-0.5377514362335205,"75":-0.30275973677635193,"76":-0.10767154395580292,"77":-0.3476668894290924,"78":-0.17954464256763458,"79":-0.1755923628807068,"80":0.02425433322787285,"81":0.05595364794135094,"82":0.20953017473220825,"83":0.12812088429927826,"84":-0.0835740938782692,"85":0.12344768643379211,"86":0.0015096806455403566,"87":-0.17913328111171722,"88":0.1089463084936142,"89":-0.1176428273320198,"90":-0.06746374070644379,"91":-0.38970863819122314,"92":-0.1208677887916565,"93":-0.01453657541424036,"94":0.0026404575910419226,"95":0.06464552134275436,"96":-0.37525880336761475,"97":-0.08305858075618744,"98":0.33019307255744934,"99":-0.2724701464176178,"100":-0.1450885534286499,"101":-0.059413615614175797,"102":-0.23110710084438324,"103":0.36148884892463684,"104":0.16107942163944244,"105":-0.04340668022632599,"106":0.008996070362627506,"107":0.03522549569606781,"108":0.07810904085636139,"109":0.26643747091293335,"110":0.11005568504333496,"111":0.19862250983715057,"112":-0.14984934031963348,"113":0.00033245686790905893,"114":0.04058264568448067,"115":0.443380743265152,"116":-0.048768118023872375,"117":-0.14197228848934174,"118":-0.0632755234837532}},"19":{"bias":-0.19117625057697296,"weights":{"0":0.02721414528787136,"1":-0.16469374299049377,"2":-0.052095264196395874,"3":0.06729260087013245,"4":0.18005585670471191,"5":-0.2950558066368103,"6":0.07020708173513412,"7":-0.20571187138557434,"8":-0.18004128336906433,"9":0.18002210557460785,"10":0.09923762828111649,"11":-0.3132660388946533,"12":0.36595436930656433,"13":-0.01994146965444088,"14":0.11181322485208511,"15":0.12158911675214767,"16":-0.15227699279785156,"17":-0.017870794981718063,"18":0.07636186480522156,"19":-0.0522303581237793,"20":-0.2655831575393677,"21":-0.0036465320736169815,"22":-0.026597842574119568,"23":-0.18525058031082153,"24":0.10116927325725555,"25":-0.2863682806491852,"26":0.26385319232940674,"27":-0.02721642516553402,"28":0.03184805437922478,"29":-0.055961742997169495,"30":0.09617836028337479,"31":-0.060190942138433456,"32":0.052146025002002716,"33":0.08928292989730835,"34":-0.16281314194202423,"35":0.2488975077867508,"36":-0.07980312407016754,"37":0.03817114606499672,"38":0.012467353604733944,"39":0.04513587802648544,"40":0.02704818733036518,"41":-0.11419913172721863,"42":0.038090020418167114,"43":0.06119732931256294,"44":-0.007227406371384859,"45":0.10654490441083908,"46":-0.13376474380493164,"47":0.11276917904615402,"48":-0.38465404510498047,"49":-0.06999560445547104,"50":-0.008073922246694565,"51":0.03520935773849487,"52":-0.06971906870603561,"53":-0.1370508223772049,"54":-0.07893811166286469,"55":0.06929416954517365,"56":0.12790678441524506,"57":0.14698702096939087,"58":0.09327265620231628,"59":0.20677004754543304,"60":0.14820019900798798,"61":0.07926789671182632,"62":0.07063277810811996,"63":-0.06946486979722977,"64":-0.11577816307544708,"65":-0.3373146951198578,"66":-0.05046515539288521,"67":0.004584858193993568,"68":0.16149884462356567,"69":-0.04143702983856201,"70":0.1772746443748474,"71":0.16846518218517303,"72":-0.08148197829723358,"73":0.1424793154001236,"74":0.0026614468079060316,"75":0.08795822411775589,"76":0.04983227327466011,"77":0.24380484223365784,"78":0.029029564931988716,"79":0.18131540715694427,"80":-0.09853286296129227,"81":-0.1404908299446106,"82":-0.23372720181941986,"83":0.11952757090330124,"84":0.13020166754722595,"85":-0.055782660841941833,"86":0.08445276319980621,"87":-0.06346143037080765,"88":0.11045779287815094,"89":0.0765589252114296,"90":0.24302326142787933,"91":0.26043012738227844,"92":0.16334745287895203,"93":-0.18803641200065613,"94":0.16427451372146606,"95":-0.1392296850681305,"96":0.27337291836738586,"97":-0.19653503596782684,"98":-0.08189299702644348,"99":0.2323208600282669,"100":-0.04601193219423294,"101":0.0322914719581604,"102":-0.10336043685674667,"103":-0.08101414144039154,"104":0.15179172158241272,"105":0.21559685468673706,"106":0.12453489005565643,"107":0.11221551150083542,"108":-0.017700297757983208,"109":-0.1426340788602829,"110":-0.2714296281337738,"111":-0.34157782793045044,"112":0.13390593230724335,"113":0.1374068558216095,"114":-0.09426408261060715,"115":-0.1914214938879013,"116":-0.24819520115852356,"117":0.08305314183235168,"118":0.0564938522875309}},"20":{"bias":0.03328397870063782,"weights":{"0":0.28870439529418945,"1":0.2002832591533661,"2":0.13106301426887512,"3":-0.035131584852933884,"4":0.10841891169548035,"5":0.26807305216789246,"6":-0.07715737074613571,"7":-0.05726224184036255,"8":0.24773861467838287,"9":-0.08365891873836517,"10":0.1318807750940323,"11":0.23682239651679993,"12":-0.3658139109611511,"13":0.11106816679239273,"14":-0.2846522927284241,"15":-0.16719254851341248,"16":-0.13095109164714813,"17":-0.20443058013916016,"18":-0.07035049796104431,"19":-0.22809746861457825,"20":0.2670009136199951,"21":0.26872706413269043,"22":-0.1299544870853424,"23":-0.17962755262851715,"24":0.0864192470908165,"25":0.17017421126365662,"26":-0.18456560373306274,"27":-0.18864978849887848,"28":-0.10024189949035645,"29":-0.1696842908859253,"30":-0.0861564502120018,"31":-0.12344689667224884,"32":-0.018046854063868523,"33":-0.11464530974626541,"34":0.14884276688098907,"35":-0.18254025280475616,"36":0.24221378564834595,"37":-0.1840916872024536,"38":0.29669609665870667,"39":0.22294723987579346,"40":-0.16376595199108124,"41":-0.07608921825885773,"42":0.09870795160531998,"43":-0.1862480342388153,"44":0.03574850782752037,"45":-0.18990884721279144,"46":0.1883271038532257,"47":-0.00973830372095108,"48":0.4568699598312378,"49":0.24620753526687622,"50":0.26263055205345154,"51":0.046267978847026825,"52":0.16765441000461578,"53":-0.09689562022686005,"54":0.14001516997814178,"55":-0.31709110736846924,"56":-0.14198918640613556,"57":-0.27051952481269836,"58":-0.07342620193958282,"59":-0.04342007637023926,"60":-0.14951832592487335,"61":-0.248626247048378,"62":0.336329847574234,"63":0.28802937269210815,"64":0.17831963300704956,"65":0.31917092204093933,"66":0.396812379360199,"67":0.2550729513168335,"68":0.1252407282590866,"69":0.14928361773490906,"70":0.11032411456108093,"71":-0.2777106463909149,"72":-0.28179746866226196,"73":-0.3493315875530243,"74":-0.49235856533050537,"75":-0.03368251025676727,"76":-0.29167893528938293,"77":-0.08664917200803757,"78":-0.2855340242385864,"79":-0.30409789085388184,"80":-0.15543676912784576,"81":0.10095636546611786,"82":-0.023064369335770607,"83":0.06540163606405258,"84":0.018190188333392143,"85":0.04563504084944725,"86":-0.019124897196888924,"87":0.08500996232032776,"88":0.13368107378482819,"89":0.0856834277510643,"90":-0.213263601064682,"91":-0.09189080446958542,"92":-0.19346463680267334,"93":0.13772180676460266,"94":-0.32604295015335083,"95":-0.010040915571153164,"96":0.029583416879177094,"97":-0.1210142970085144,"98":0.27295973896980286,"99":0.07047948241233826,"100":0.014262516982853413,"101":-0.1729286164045334,"102":-0.15838874876499176,"103":0.05242763087153435,"104":0.1427944451570511,"105":0.04142284765839577,"106":-0.23080426454544067,"107":0.0827978178858757,"108":0.10514818876981735,"109":0.021657703444361687,"110":0.10573744773864746,"111":0.4061875343322754,"112":-0.24773630499839783,"113":-0.18857061862945557,"114":0.05061928182840347,"115":0.40036439895629883,"116":0.24116481840610504,"117":-0.06249713525176048,"118":-0.17119739949703217}},"21":{"bias":-0.04421325400471687,"weights":{"0":-0.03235233575105667,"1":-0.12289703637361526,"2":0.010916114784777164,"3":-0.05277428776025772,"4":0.3042244017124176,"5":-0.33207571506500244,"6":-0.22809705138206482,"7":-0.22933758795261383,"8":-0.40712568163871765,"9":0.09422217309474945,"10":0.11444240063428879,"11":-0.2166169434785843,"12":0.2205246537923813,"13":-0.023124799132347107,"14":0.1614406406879425,"15":0.03472732752561569,"16":-0.10775453597307205,"17":0.24571295082569122,"18":0.26048117876052856,"19":0.09090027958154678,"20":-0.16862526535987854,"21":0.04495967924594879,"22":-0.2098233550786972,"23":-0.13766752183437347,"24":-0.02974521555006504,"25":-0.3691073954105377,"26":0.14513716101646423,"27":0.18159028887748718,"28":-0.026102600619196892,"29":0.2735459804534912,"30":0.1587958037853241,"31":-0.13639742136001587,"32":0.03211366385221481,"33":-0.13709880411624908,"34":-0.009568657726049423,"35":0.15729443728923798,"36":-0.05536607280373573,"37":-0.04578806832432747,"38":-0.21713881194591522,"39":-0.16339093446731567,"40":0.29882022738456726,"41":-0.029350994154810905,"42":-0.2573181688785553,"43":-0.062311142683029175,"44":-0.23099559545516968,"45":-0.030555609613656998,"46":-0.5037869215011597,"47":0.06478852033615112,"48":-0.18095801770687103,"49":-0.3628573715686798,"50":-0.09201053529977798,"51":0.011096496134996414,"52":0.09271064400672913,"53":-0.1476275473833084,"54":-0.3059314489364624,"55":0.26789137721061707,"56":0.14794886112213135,"57":0.48139289021492004,"58":0.34520211815834045,"59":-0.008532177656888962,"60":0.20854830741882324,"61":-0.007223513908684254,"62":-0.12622585892677307,"63":-0.23407882452011108,"64":-0.16141539812088013,"65":-0.3892306685447693,"66":-0.2140340954065323,"67":-0.4156184494495392,"68":-0.06141016632318497,"69":-0.033428892493247986,"70":-0.07812762260437012,"71":0.19051451981067657,"72":0.3499865233898163,"73":0.4208408296108246,"74":0.5248327255249023,"75":0.3113960027694702,"76":0.4205187261104584,"77":0.1420905590057373,"78":0.175265371799469,"79":0.16853168606758118,"80":0.0611918680369854,"81":0.05425898730754852,"82":-0.14356254041194916,"83":0.18729518353939056,"84":0.01694324240088463,"85":-0.17329242825508118,"86":0.014066532254219055,"87":-0.05981120094656944,"88":-0.018075700849294662,"89":0.22728075087070465,"90":0.11053306609392166,"91":0.1236562505364418,"92":0.015383795835077763,"93":-0.03494250401854515,"94":0.031519148498773575,"95":0.052074134349823,"96":0.1616138219833374,"97":0.14102625846862793,"98":-0.35361579060554504,"99":0.23498126864433289,"100":0.07488309592008591,"101":0.15328989923000336,"102":0.26175159215927124,"103":-0.12741719186306,"104":-0.14718519151210785,"105":0.07039900869131088,"106":0.3258742690086365,"107":0.22645419836044312,"108":-0.15740308165550232,"109":-0.2050405591726303,"110":-0.16493237018585205,"111":-0.32013311982154846,"112":0.06624952703714371,"113":-0.007320319768041372,"114":-0.004750991240143776,"115":-0.33770203590393066,"116":-0.14843575656414032,"117":0.0942934975028038,"118":0.07020251452922821}},"22":{"bias":0.08914598822593689,"weights":{"0":0.2823389172554016,"1":0.003777450183406472,"2":0.030110852792859077,"3":0.20397688448429108,"4":0.052759893238544464,"5":0.11252240836620331,"6":0.20890571177005768,"7":0.1422991305589676,"8":0.2921839654445648,"9":0.007792049553245306,"10":-0.19683735072612762,"11":0.44830837845802307,"12":-0.2740091383457184,"13":0.12383361905813217,"14":-0.4354882538318634,"15":-0.2557781934738159,"16":0.19002662599086761,"17":-0.21617721021175385,"18":-0.21742874383926392,"19":-0.10151135176420212,"20":0.40149176120758057,"21":-0.05015941336750984,"22":0.08771588653326035,"23":-0.13410302996635437,"24":-0.015658138319849968,"25":0.4089309275150299,"26":-0.17652425169944763,"27":-0.195779949426651,"28":0.2127063274383545,"29":-0.25522422790527344,"30":-0.014664518646895885,"31":0.17944703996181488,"32":0.10671411454677582,"33":0.12825962901115417,"34":-0.0002892217307817191,"35":-0.054014336317777634,"36":0.3685322403907776,"37":-0.28104761242866516,"38":0.20365087687969208,"39":-0.06835250556468964,"40":-0.3701631724834442,"41":0.015532368794083595,"42":0.32031774520874023,"43":-0.0031144749373197556,"44":0.24601899087429047,"45":-0.14526735246181488,"46":0.563596785068512,"47":-0.13987259566783905,"48":0.344379723072052,"49":0.34997764229774475,"50":0.15293064713478088,"51":0.13356146216392517,"52":0.17642484605312347,"53":0.01885445974767208,"54":0.3024173676967621,"55":-0.16300557553768158,"56":-0.10752478986978531,"57":-0.5342190265655518,"58":-0.4387302100658417,"59":-0.043050412088632584,"60":-0.20796644687652588,"61":-0.18492135405540466,"62":0.39708396792411804,"63":0.3554937243461609,"64":-0.14081962406635284,"65":0.21088111400604248,"66":0.3579269051551819,"67":0.18028677999973297,"68":-0.050522856414318085,"69":0.23211784660816193,"70":-0.2585647404193878,"71":-0.3044501543045044,"72":-0.3664496839046478,"73":-0.42517757415771484,"74":-0.2710701823234558,"75":-0.23818117380142212,"76":-0.482863187789917,"77":-0.029150288552045822,"78":-0.13160671293735504,"79":-0.27395838499069214,"80":-0.0753740444779396,"81":0.05365387722849846,"82":0.24535571038722992,"83":0.0013296882389113307,"84":-0.21436187624931335,"85":0.07282517105340958,"86":-0.09392169862985611,"87":-0.1876218020915985,"88":-0.020265057682991028,"89":0.04886837676167488,"90":-0.43826809525489807,"91":-0.2531651556491852,"92":-0.06071269139647484,"93":0.1614839881658554,"94":-0.27213409543037415,"95":-0.12516717612743378,"96":-0.008552241139113903,"97":-0.132969930768013,"98":0.195782870054245,"99":-0.09761841595172882,"100":0.09385689347982407,"101":-0.1241748258471489,"102":-0.1218024268746376,"103":0.30499735474586487,"104":0.18596617877483368,"105":-0.11134719103574753,"106":-0.024594904854893684,"107":0.06035077944397926,"108":0.0009352636407129467,"109":0.20963895320892334,"110":0.03453782573342323,"111":0.2768823504447937,"112":0.03893740847706795,"113":-0.07753311842679977,"114":-0.13916951417922974,"115":0.36945176124572754,"116":-0.05760308355093002,"117":-0.226354718208313,"118":-0.06171639636158943}},"23":{"bias":-0.05315667390823364,"weights":{"0":0.09738863259553909,"1":-0.09736320376396179,"2":-0.04075589030981064,"3":-0.2467360645532608,"4":0.13684360682964325,"5":0.06874937564134598,"6":-0.027440255507826805,"7":-0.23095613718032837,"8":-0.1412554234266281,"9":0.14911922812461853,"10":-0.06764250248670578,"11":-0.05388948693871498,"12":0.13177689909934998,"13":-0.19026081264019012,"14":0.20510628819465637,"15":-0.15723025798797607,"16":-0.10736658424139023,"17":-0.03258439153432846,"18":-0.13453318178653717,"19":0.0034573134034872055,"20":-0.2583674490451813,"21":-0.08548909425735474,"22":-0.074407659471035,"23":0.03904919698834419,"24":-0.09041567891836166,"25":-0.11392765492200851,"26":0.2131929099559784,"27":0.1899709403514862,"28":0.09600594639778137,"29":-0.04144781455397606,"30":0.16525691747665405,"31":-0.11079851537942886,"32":0.08398882299661636,"33":0.09252438694238663,"34":0.17508165538311005,"35":0.2734280526638031,"36":-0.16256530582904816,"37":0.07093442231416702,"38":0.06463780999183655,"39":-0.1537833958864212,"40":0.14416289329528809,"41":0.0751606896519661,"42":-0.017714012414216995,"43":-0.09763172268867493,"44":-0.018268633633852005,"45":-0.06066885590553284,"46":-0.11167857050895691,"47":0.08894439041614532,"48":-0.4016408920288086,"49":-0.04040825366973877,"50":-0.10410457104444504,"51":-0.013894575648009777,"52":0.021068328991532326,"53":0.14956730604171753,"54":-0.06185700371861458,"55":0.25009846687316895,"56":-0.11571316421031952,"57":0.2503046989440918,"58":0.27722617983818054,"59":0.12210811674594879,"60":0.11017978191375732,"61":-0.023216506466269493,"62":-0.3199343979358673,"63":-0.2853741943836212,"64":0.1327935755252838,"65":-0.23890671133995056,"66":-0.1329185664653778,"67":-0.22038309276103973,"68":0.03992261737585068,"69":0.06353722512722015,"70":-0.07109095901250839,"71":-0.07580942660570145,"72":-0.11609597504138947,"73":0.13075664639472961,"74":0.2762701213359833,"75":-0.05850237235426903,"76":0.30457115173339844,"77":0.027370888739824295,"78":0.08637990802526474,"79":0.2560195326805115,"80":0.07495160400867462,"81":-0.00863364152610302,"82":0.03152092546224594,"83":0.12188627570867538,"84":0.2291882336139679,"85":-0.04177141934633255,"86":0.17088976502418518,"87":-0.09575427323579788,"88":0.11369172483682632,"89":-0.015602363273501396,"90":0.06617787480354309,"91":0.047932036221027374,"92":-0.07362847775220871,"93":0.17285798490047455,"94":0.20239664614200592,"95":-0.07235560566186905,"96":-0.030941028147935867,"97":-0.10968323051929474,"98":-0.16038770973682404,"99":0.003850164357572794,"100":-0.05596053972840309,"101":0.09198446571826935,"102":0.06277003884315491,"103":-0.16178254783153534,"104":-0.17219312489032745,"105":0.16413593292236328,"106":0.18393750488758087,"107":0.1751796007156372,"108":-0.06947217136621475,"109":-0.11776255071163177,"110":-0.19125996530056,"111":-0.11601190268993378,"112":-0.21093976497650146,"113":-0.036063965409994125,"114":0.07866282016038895,"115":-0.2728929817676544,"116":0.03694934397935867,"117":-0.12076998502016068,"118":0.10757092386484146}},"24":{"bias":-0.011258576065301895,"weights":{"0":-0.042258523404598236,"1":-0.2603376805782318,"2":-0.22318221628665924,"3":-0.19106601178646088,"4":0.046848002821207047,"5":-0.040478989481925964,"6":-0.1491432785987854,"7":-0.16092996299266815,"8":-0.3465162217617035,"9":0.24186165630817413,"10":0.12434931844472885,"11":-0.4000895023345947,"12":0.5066449046134949,"13":-0.0999801754951477,"14":0.30419647693634033,"15":-0.08575527369976044,"16":0.03443208336830139,"17":0.08643348515033722,"18":0.2765791416168213,"19":-0.003107106778770685,"20":-0.378286749124527,"21":0.10878041386604309,"22":0.08252833783626556,"23":0.16865023970603943,"24":-0.02159765549004078,"25":-0.393250435590744,"26":0.16266809403896332,"27":-0.09407815337181091,"28":0.08040276914834976,"29":0.00929489079862833,"30":0.10103153437376022,"31":-0.06045479699969292,"32":0.12213858217000961,"33":0.17478257417678833,"34":0.10143445432186127,"35":-0.02013317495584488,"36":-0.32099780440330505,"37":0.03519420698285103,"38":-0.06114384904503822,"39":-0.04494528844952583,"40":0.3540600538253784,"41":0.11989989131689072,"42":-0.3146243393421173,"43":-0.03566351160407066,"44":-0.15042437613010406,"45":0.17945705354213715,"46":-0.5480987429618835,"47":0.06846997141838074,"48":-0.3063632845878601,"49":-0.17474117875099182,"50":-0.33438029885292053,"51":-0.0031399321742355824,"52":-0.01576163060963154,"53":-0.11979211866855621,"54":-0.28321558237075806,"55":0.15956786274909973,"56":0.23518060147762299,"57":0.38454797863960266,"58":0.39437130093574524,"59":0.1371096819639206,"60":0.32237696647644043,"61":0.01593262329697609,"62":-0.21750319004058838,"63":-0.19583608210086823,"64":0.005023653153330088,"65":-0.17524920403957367,"66":-0.37175488471984863,"67":-0.31441518664360046,"68":-0.029443802312016487,"69":-0.10251670330762863,"70":0.1884303241968155,"71":0.14834965765476227,"72":0.05327340215444565,"73":0.26985880732536316,"74":0.21934038400650024,"75":0.3886132836341858,"76":0.18626326322555542,"77":0.22972428798675537,"78":0.16893337666988373,"79":0.2459339052438736,"80":0.14338044822216034,"81":0.008913968689739704,"82":-0.13880303502082825,"83":0.02489614114165306,"84":0.01413748599588871,"85":-0.19133193790912628,"86":0.06555300951004028,"87":0.13881154358386993,"88":-0.01099187508225441,"89":-0.07409240305423737,"90":0.1111813485622406,"91":0.39682677388191223,"92":-0.07830806821584702,"93":-0.13372479379177094,"94":0.31874632835388184,"95":0.13574323058128357,"96":0.34745949506759644,"97":-0.004218302667140961,"98":-0.19707709550857544,"99":0.17479228973388672,"100":-0.009501803666353226,"101":0.11968516558408737,"102":0.13855166733264923,"103":-0.3573734760284424,"104":0.052661098539829254,"105":0.22623080015182495,"106":0.017019277438521385,"107":-0.0030226712115108967,"108":-0.09323742240667343,"109":-0.038354817777872086,"110":-0.3298732340335846,"111":-0.36464470624923706,"112":0.2603086829185486,"113":-0.09962137043476105,"114":-0.0703146904706955,"115":-0.47051572799682617,"116":-0.044434964656829834,"117":-0.08473992347717285,"118":-0.1126275360584259}},"25":{"bias":-0.12329358607530594,"weights":{"0":-0.07205812633037567,"1":-0.22468161582946777,"2":-0.11562418192625046,"3":-0.05528739467263222,"4":-0.07982949167490005,"5":0.061712637543678284,"6":-0.2218911498785019,"7":0.07894634455442429,"8":-0.1631607860326767,"9":-0.15342718362808228,"10":0.06692218780517578,"11":-0.33678585290908813,"12":0.28844523429870605,"13":-0.030314655974507332,"14":-0.018071047961711884,"15":-0.0757659450173378,"16":-0.17763102054595947,"17":0.09071160107851028,"18":-0.10180465131998062,"19":0.2233733832836151,"20":-0.3161645233631134,"21":0.06620665639638901,"22":-0.14715255796909332,"23":0.10957123339176178,"24":-0.12883105874061584,"25":-0.16815365850925446,"26":0.004471936728805304,"27":0.2065034657716751,"28":-0.0991160050034523,"29":-0.03459243103861809,"30":0.18093766272068024,"31":0.010884852148592472,"32":-0.20678013563156128,"33":-0.07886483520269394,"34":0.11929763853549957,"35":0.23883837461471558,"36":-0.16431769728660583,"37":0.27998456358909607,"38":-0.17025481164455414,"39":0.17051823437213898,"40":0.058668166399002075,"41":0.18226343393325806,"42":-0.1816708743572235,"43":-0.06885406374931335,"44":0.045856550335884094,"45":0.1519828885793686,"46":-0.224859356880188,"47":0.040392059832811356,"48":-0.14829853177070618,"49":-0.17410293221473694,"50":-0.06543990224599838,"51":0.17516107857227325,"52":0.17799922823905945,"53":0.07862239331007004,"54":-0.23416738212108612,"55":0.1905810683965683,"56":0.09507213532924652,"57":0.12440285831689835,"58":0.036034584045410156,"59":0.12080465257167816,"60":0.2780636250972748,"61":0.1894112378358841,"62":-0.23520851135253906,"63":-0.20965948700904846,"64":0.11599643528461456,"65":-0.29521214962005615,"66":-0.11877739429473877,"67":-0.3014041483402252,"68":-0.14904984831809998,"69":-0.030592698603868484,"70":0.0003078182344324887,"71":0.25418052077293396,"72":0.2516573965549469,"73":0.19207152724266052,"74":0.22615477442741394,"75":0.2934076189994812,"76":0.0640927255153656,"77":0.2502249777317047,"78":0.3104466199874878,"79":0.14211808145046234,"80":0.229129821062088,"81":0.15913161635398865,"82":0.054626718163490295,"83":-0.07947719097137451,"84":0.024384649470448494,"85":-0.28625574707984924,"86":-0.04337799549102783,"87":0.09549335390329361,"88":0.10001344978809357,"89":-0.14981968700885773,"90":0.12094884365797043,"91":0.3141046166419983,"92":0.21796604990959167,"93":0.10703350603580475,"94":0.29059046506881714,"95":-0.002167163649573922,"96":0.07489854842424393,"97":0.17321506142616272,"98":-0.07931531220674515,"99":0.042078759521245956,"100":-0.2245710790157318,"101":-0.055751997977495193,"102":-0.06746641546487808,"103":0.011997604742646217,"104":-0.15478955209255219,"105":0.11956619471311569,"106":0.17831717431545258,"107":0.11073026806116104,"108":-0.23520514369010925,"109":-0.20833569765090942,"110":-0.13174405694007874,"111":-0.3574538826942444,"112":-0.08395171165466309,"113":-0.013129789382219315,"114":-0.08455362170934677,"115":-0.22464469075202942,"116":0.07665861397981644,"117":-0.15079624950885773,"118":-0.147181898355484}},"26":{"bias":0.06150924414396286,"weights":{"0":0.004816476721316576,"1":-0.24791386723518372,"2":-0.026378992944955826,"3":0.06070974841713905,"4":0.14887546002864838,"5":-0.14285160601139069,"6":-0.2561344504356384,"7":-0.08233502507209778,"8":-0.10365040600299835,"9":0.02775700017809868,"10":-0.006756159011274576,"11":-0.35405343770980835,"12":0.03994355350732803,"13":-0.22346873581409454,"14":-0.04948834702372551,"15":-0.0512365885078907,"16":-0.15594783425331116,"17":-0.09240178018808365,"18":-0.08253269642591476,"19":0.09667627513408661,"20":-0.025594010949134827,"21":-0.08142238855361938,"22":-0.18518418073654175,"23":0.08585447072982788,"24":0.1441245675086975,"25":-0.23173142969608307,"26":0.0681534931063652,"27":0.10918235033750534,"28":-0.09373065084218979,"29":0.17168140411376953,"30":-0.0519694983959198,"31":-0.05828369781374931,"32":0.013434202410280704,"33":0.011105125769972801,"34":-0.009498946368694305,"35":0.11845110356807709,"36":-0.023136649280786514,"37":-0.003179338760674,"38":0.006802366115152836,"39":0.07651837170124054,"40":0.24885839223861694,"41":0.15057089924812317,"42":-0.22628732025623322,"43":-0.01868765987455845,"44":-0.09751048684120178,"45":-0.06335634738206863,"46":-0.35830822587013245,"47":-0.01746531017124653,"48":-0.2930280566215515,"49":-0.19347012042999268,"50":-0.2091982662677765,"51":-0.1460585743188858,"52":-0.04257138445973396,"53":0.15568852424621582,"54":-0.0839461237192154,"55":0.13375157117843628,"56":0.03160218894481659,"57":0.32635030150413513,"58":0.15659072995185852,"59":0.13110262155532837,"60":0.1586715430021286,"61":0.11406448483467102,"62":-0.2901005446910858,"63":-0.027756039053201675,"64":0.09753602743148804,"65":-0.37827804684638977,"66":-0.09248479455709457,"67":-0.21344874799251556,"68":-0.09726686030626297,"69":-0.25099414587020874,"70":-0.0892750695347786,"71":0.07615705579519272,"72":0.2838538587093353,"73":0.286668062210083,"74":0.1307133287191391,"75":0.2923521101474762,"76":0.2965468764305115,"77":0.15247616171836853,"78":0.22237072885036469,"79":0.26138007640838623,"80":0.24163293838500977,"81":-0.10567337274551392,"82":-0.08032802492380142,"83":0.204617440700531,"84":0.12075580656528473,"85":0.0322113074362278,"86":-0.014332002028822899,"87":0.14805245399475098,"88":0.1541590541601181,"89":0.03771628066897392,"90":0.25656354427337646,"91":0.004889351315796375,"92":-0.06424912810325623,"93":-0.1698305755853653,"94":0.18521980941295624,"95":0.04959964007139206,"96":0.09398844838142395,"97":0.1110767275094986,"98":-0.00983863789588213,"99":0.25567227602005005,"100":-0.08883079141378403,"101":0.0680968314409256,"102":-0.04608376696705818,"103":-0.13863793015480042,"104":0.05996343493461609,"105":0.1958993375301361,"106":-0.1151256263256073,"107":-0.0013145030243322253,"108":-0.19149146974086761,"109":-0.0863332524895668,"110":0.001655614236369729,"111":-0.3006490468978882,"112":-0.08230044692754745,"113":0.13969150185585022,"114":0.22816966474056244,"115":-0.11737630516290665,"116":0.06899141520261765,"117":0.1466832160949707,"118":-0.08853018283843994}},"27":{"bias":0.04611651226878166,"weights":{"0":0.0803307294845581,"1":0.1602856069803238,"2":0.15414372086524963,"3":-0.0006518770824186504,"4":0.104188472032547,"5":-0.02321305312216282,"6":-0.04037922993302345,"7":-0.01521432027220726,"8":0.051348425447940826,"9":-0.16503237187862396,"10":0.019711174070835114,"11":0.26875412464141846,"12":-0.38382789492607117,"13":0.025826461613178253,"14":-0.18023481965065002,"15":0.0018419366097077727,"16":-0.052028607577085495,"17":0.038702841848134995,"18":-0.05045601725578308,"19":-0.23941832780838013,"20":-0.0282546766102314,"21":0.06745486706495285,"22":-0.021103832870721817,"23":0.06195506080985069,"24":-0.129189595580101,"25":-0.012266198173165321,"26":-0.002037863712757826,"27":0.13706709444522858,"28":0.07624022662639618,"29":-0.08287347108125687,"30":0.09117733687162399,"31":0.16106535494327545,"32":0.2174692004919052,"33":-0.14620235562324524,"34":-0.03553950414061546,"35":-0.012413199059665203,"36":0.1416214406490326,"37":-0.13889256119728088,"38":0.24695828557014465,"39":-0.04147534444928169,"40":-0.1357177495956421,"41":0.05220753699541092,"42":-0.012527315877377987,"43":0.18569588661193848,"44":0.0028907605446875095,"45":-0.2732994854450226,"46":0.04151707887649536,"47":-0.029414473101496696,"48":0.33094358444213867,"49":0.22551827132701874,"50":-0.012811489403247833,"51":0.04396003484725952,"52":0.023293672129511833,"53":0.10055473446846008,"54":0.2832392156124115,"55":-0.06306291371583939,"56":-0.23164305090904236,"57":-0.3733271658420563,"58":0.018364159390330315,"59":0.08906460553407669,"60":-0.01137907151132822,"61":-0.06540502607822418,"62":0.1666630655527115,"63":0.17886681854724884,"64":0.18429040908813477,"65":0.3346429467201233,"66":0.3264922797679901,"67":0.06912834942340851,"68":-0.05651554837822914,"69":0.1041940376162529,"70":-0.1626548022031784,"71":-0.12351044267416,"72":-0.05108426883816719,"73":-0.33836618065834045,"74":-0.2371949553489685,"75":0.008083177730441093,"76":-0.23321817815303802,"77":-0.18718692660331726,"78":-0.0020941351540386677,"79":0.09150458872318268,"80":-0.06401623040437698,"81":0.1426081657409668,"82":0.05175139382481575,"83":0.0697966143488884,"84":-0.03997856006026268,"85":0.20161977410316467,"86":0.04208531975746155,"87":0.06621289998292923,"88":-0.0792168453335762,"89":0.06023953855037689,"90":-0.24567751586437225,"91":-0.0818277969956398,"92":-0.03374873846769333,"93":-0.18405796587467194,"94":-0.19659557938575745,"95":-0.05624859780073166,"96":-0.23272883892059326,"97":-0.16719569265842438,"98":0.2711866796016693,"99":-0.20839765667915344,"100":0.10974547266960144,"101":-0.16550970077514648,"102":-0.2884015142917633,"103":-0.005313983652740717,"104":0.07980863004922867,"105":-0.08702949434518814,"106":-0.26604798436164856,"107":-0.06157010421156883,"108":-0.13981802761554718,"109":-0.02548069693148136,"110":0.1135723739862442,"111":0.38110920786857605,"112":-0.15221385657787323,"113":0.06785967200994492,"114":0.09157788008451462,"115":0.19500991702079773,"116":0.12495061755180359,"117":-0.1143263727426529,"118":0.10698787868022919}},"28":{"bias":-0.17045070230960846,"weights":{"0":0.11735956370830536,"1":0.12489885091781616,"2":0.02744303084909916,"3":0.10406409204006195,"4":0.12023976445198059,"5":-0.054119523614645004,"6":0.02062726579606533,"7":0.11709746718406677,"8":-0.013390817679464817,"9":-0.00829359982162714,"10":0.14389188587665558,"11":0.40113261342048645,"12":-0.3005017042160034,"13":-0.12307970225811005,"14":-0.06124149262905121,"15":-0.08407184481620789,"16":0.2063966989517212,"17":0.05245072394609451,"18":0.07280784845352173,"19":0.028223659843206406,"20":-0.010420660488307476,"21":0.058145370334386826,"22":-0.1423809975385666,"23":-0.04228075221180916,"24":0.1211623027920723,"25":0.03420872986316681,"26":-0.12951576709747314,"27":-0.2144431322813034,"28":-0.0193006694316864,"29":-0.12111147493124008,"30":0.11852938681840897,"31":-0.06728889793157578,"32":0.0958930030465126,"33":-0.030834097415208817,"34":-0.08340278267860413,"35":0.02634873241186142,"36":0.2735064923763275,"37":-0.042679790407419205,"38":0.2866781949996948,"39":0.10560757666826248,"40":-0.21142077445983887,"41":0.23746560513973236,"42":0.21300503611564636,"43":0.05282154306769371,"44":0.2728213369846344,"45":-0.055039845407009125,"46":0.2589316964149475,"47":-0.12287076562643051,"48":0.09799495339393616,"49":0.14527946710586548,"50":-0.021568069234490395,"51":-0.18801507353782654,"52":0.21059024333953857,"53":-0.04929468035697937,"54":0.004730849992483854,"55":-0.17811515927314758,"56":-0.1055661141872406,"57":-0.0063248081132769585,"58":-0.3096124827861786,"59":-0.02461080811917782,"60":-0.024693718180060387,"61":-0.11886225640773773,"62":0.03894181177020073,"63":0.0063620675355196,"64":0.0010816915892064571,"65":0.2046850025653839,"66":0.25204047560691833,"67":0.3459303677082062,"68":-0.09170673787593842,"69":0.21316367387771606,"70":0.10949333757162094,"71":-0.066413015127182,"72":-0.288961261510849,"73":-0.06619686633348465,"74":-0.22245731949806213,"75":-0.21736536920070648,"76":-0.24107909202575684,"77":-0.24855567514896393,"78":-0.2453598976135254,"79":-0.02646736241877079,"80":0.034871332347393036,"81":-0.058023106306791306,"82":0.07548587024211884,"83":-0.13470880687236786,"84":0.06815523654222488,"85":0.0027827906887978315,"86":0.008503174409270287,"87":-0.12929540872573853,"88":-0.11798177659511566,"89":-0.08306718617677689,"90":-0.04467645660042763,"91":-0.17733041942119598,"92":0.009271970950067043,"93":0.030961766839027405,"94":-0.3130240738391876,"95":-0.22637054324150085,"96":-0.31371772289276123,"97":0.11996489018201828,"98":0.08088955283164978,"99":0.11829055845737457,"100":-0.1646697074174881,"101":0.07561156153678894,"102":0.055845826864242554,"103":0.10628942400217056,"104":-0.14936134219169617,"105":-0.21438652276992798,"106":-0.2375507950782776,"107":-0.055544886738061905,"108":-0.0011912648333236575,"109":0.16400326788425446,"110":0.2545437216758728,"111":0.2723972201347351,"112":0.07580801099538803,"113":-0.13571278750896454,"114":0.1509997844696045,"115":0.27620887756347656,"116":0.24980710446834564,"117":0.133289635181427,"118":-0.036907631903886795}},"29":{"bias":-0.010122403502464294,"weights":{"0":-0.1018187403678894,"1":-0.24851210415363312,"2":-0.17889276146888733,"3":-0.142090305685997,"4":0.018752504140138626,"5":-0.0653345137834549,"6":-0.16096219420433044,"7":0.039074819535017014,"8":-0.11510103195905685,"9":0.11153221130371094,"10":-0.11232659965753555,"11":-0.28359243273735046,"12":0.06541423499584198,"13":0.058533720672130585,"14":0.017578065395355225,"15":-0.051301009953022,"16":-0.23303836584091187,"17":-0.002519832458347082,"18":0.12955817580223083,"19":0.21011768281459808,"20":0.022223610430955887,"21":-0.04552016034722328,"22":0.04659460857510567,"23":0.01102246344089508,"24":-0.022875063121318817,"25":-0.12925785779953003,"26":0.09047739207744598,"27":-0.08209693431854248,"28":0.018787750974297523,"29":0.2821594476699829,"30":-0.15846940875053406,"31":0.15153434872627258,"32":0.04314466565847397,"33":-0.006242015399038792,"34":0.19116215407848358,"35":0.29354268312454224,"36":-0.29378724098205566,"37":-0.09974344819784164,"38":-0.0037003925535827875,"39":0.03762100636959076,"40":0.13045290112495422,"41":0.008243408054113388,"42":-0.2979784905910492,"43":0.012622813694179058,"44":-0.2790227234363556,"45":0.24768909811973572,"46":-0.4122457504272461,"47":-0.05660175159573555,"48":-0.26658302545547485,"49":-0.07084860652685165,"50":0.0026589855551719666,"51":-0.10265106707811356,"52":0.014989521354436874,"53":0.11924570798873901,"54":-0.28748929500579834,"55":0.1428813487291336,"56":0.11717317998409271,"57":0.08703755587339401,"58":0.05260539427399635,"59":0.05873522907495499,"60":0.25507357716560364,"61":0.18650782108306885,"62":-0.24034598469734192,"63":-0.22210989892482758,"64":0.019048355519771576,"65":-0.05816551670432091,"66":-0.028844621032476425,"67":-0.11689624935388565,"68":0.0007520513609051704,"69":0.014987423084676266,"70":-0.06415265798568726,"71":0.19154725968837738,"72":0.30547621846199036,"73":0.3633538484573364,"74":0.42546746134757996,"75":0.02903020940721035,"76":0.19260558485984802,"77":0.03685019537806511,"78":0.12806819379329681,"79":0.23955616354942322,"80":0.1256864070892334,"81":0.027204040437936783,"82":-0.1757131665945053,"83":0.03951340168714523,"84":0.1500777304172516,"85":-0.30790016055107117,"86":-0.1652475744485855,"87":0.14383190870285034,"88":-0.18517401814460754,"89":0.06952381879091263,"90":0.32610204815864563,"91":0.14014698565006256,"92":0.03022262640297413,"93":-0.01652054488658905,"94":0.07026655972003937,"95":-0.0786316767334938,"96":0.279421329498291,"97":0.015226591378450394,"98":-0.3209509253501892,"99":-0.01524733379483223,"100":-0.11316723376512527,"101":0.1298757642507553,"102":0.2614805996417999,"103":-0.34464022517204285,"104":0.058682527393102646,"105":0.22988027334213257,"106":-0.05847654119133949,"107":0.16771019995212555,"108":-0.11623868346214294,"109":-0.07246182858943939,"110":-0.20000356435775757,"111":-0.35888731479644775,"112":0.06266098469495773,"113":0.10231012850999832,"114":0.2426791787147522,"115":-0.1714838296175003,"116":-0.1786632239818573,"117":-0.10822650045156479,"118":0.1916634440422058}},"30":{"bias":-0.11119011044502258,"weights":{"0":0.1392533779144287,"1":0.14164945483207703,"2":0.135775625705719,"3":-0.005969701334834099,"4":0.05224102735519409,"5":0.15422116219997406,"6":0.2048633098602295,"7":0.061815012246370316,"8":0.1324804425239563,"9":-0.18852722644805908,"10":0.12560129165649414,"11":0.13133123517036438,"12":-0.1525469869375229,"13":0.14961035549640656,"14":-0.2348596602678299,"15":-0.12198945134878159,"16":-0.09588270634412766,"17":0.15708422660827637,"18":-0.14320015907287598,"19":-0.17024554312229156,"20":-0.0769122764468193,"21":-0.03084219992160797,"22":0.0291606318205595,"23":-0.1219438686966896,"24":-0.13226638734340668,"25":-0.11616819351911545,"26":0.07301190495491028,"27":0.18204376101493835,"28":-0.027091071009635925,"29":-0.08090847730636597,"30":0.09052193909883499,"31":0.17080369591712952,"32":0.08807995170354843,"33":-0.20074497163295746,"34":-0.09122717380523682,"35":-0.024154992774128914,"36":0.12407029420137405,"37":-0.08213654905557632,"38":0.07123970240354538,"39":0.023556673899292946,"40":-0.08007457852363586,"41":-0.04937642440199852,"42":-0.01058352179825306,"43":0.044276364147663116,"44":0.09997496008872986,"45":0.042804501950740814,"46":0.022151056677103043,"47":-0.09455281496047974,"48":0.07121135294437408,"49":-0.0808190256357193,"50":0.21457955241203308,"51":0.1782676875591278,"52":0.16675788164138794,"53":0.08455438166856766,"54":0.01968790590763092,"55":-0.1635427623987198,"56":-0.19339685142040253,"57":-0.10573805868625641,"58":-0.17106439173221588,"59":0.13306941092014313,"60":-0.2177933305501938,"61":-0.1946401596069336,"62":-0.002315367804840207,"63":-0.16628214716911316,"64":0.007595510222017765,"65":0.0580422468483448,"66":-0.10565575957298279,"67":0.12788191437721252,"68":-0.059533488005399704,"69":-0.11236809939146042,"70":0.18009673058986664,"71":0.1426151990890503,"72":-0.12267065793275833,"73":-0.19726413488388062,"74":-0.23739901185035706,"75":-0.1947566121816635,"76":-0.11095166206359863,"77":-0.1366495043039322,"78":-0.09242197126150131,"79":0.06921553611755371,"80":0.022208265960216522,"81":0.11807188391685486,"82":0.18481150269508362,"83":-0.07019071280956268,"84":-0.06505966186523438,"85":-0.02457144297659397,"86":-0.04867585748434067,"87":-0.20498357713222504,"88":0.06046517193317413,"89":-0.006441445089876652,"90":-0.10491516441106796,"91":0.016055984422564507,"92":-0.12965500354766846,"93":0.08434030413627625,"94":0.10336798429489136,"95":-0.1954708844423294,"96":-0.06104216352105141,"97":-0.034932851791381836,"98":-0.07612171024084091,"99":0.06731578707695007,"100":-0.14371132850646973,"101":-0.007192515768110752,"102":-0.14945128560066223,"103":-0.10120497643947601,"104":0.003997295629233122,"105":-0.12863534688949585,"106":0.01974301226437092,"107":-0.007296928204596043,"108":-0.11199962347745895,"109":-0.13947665691375732,"110":0.060120344161987305,"111":0.14332550764083862,"112":0.09172673523426056,"113":-0.1600918173789978,"114":0.10328647494316101,"115":0.11685656756162643,"116":-0.05138307809829712,"117":-0.05453162267804146,"118":0.1199408546090126}},"31":{"bias":0.03572482243180275,"weights":{"0":0.2017529010772705,"1":0.09739908576011658,"2":0.10633432865142822,"3":0.08094435930252075,"4":-0.14567309617996216,"5":0.0861595869064331,"6":-0.152908056974411,"7":0.1014358326792717,"8":-0.00010383517656009644,"9":-0.05078769102692604,"10":0.01866515539586544,"11":0.18997806310653687,"12":-0.1584760546684265,"13":-0.042914461344480515,"14":0.06513147801160812,"15":0.014071465469896793,"16":0.03433174639940262,"17":-0.11309530586004257,"18":-0.22036047279834747,"19":0.10103407502174377,"20":-0.019574088975787163,"21":0.009761353954672813,"22":-0.009051602333784103,"23":-0.007544397376477718,"24":0.15963511168956757,"25":0.04146323353052139,"26":0.07177525013685226,"27":0.164021834731102,"28":-0.0542186014354229,"29":-0.10706719756126404,"30":0.19880102574825287,"31":0.09256395697593689,"32":-0.0525178387761116,"33":-0.08178602904081345,"34":-0.057829078286886215,"35":0.013978102244436741,"36":0.19943848252296448,"37":-0.017390618100762367,"38":-0.031609129160642624,"39":0.06741806864738464,"40":-0.029950305819511414,"41":-0.13390186429023743,"42":0.21185024082660675,"43":0.03165324404835701,"44":0.07826831936836243,"45":-0.28214001655578613,"46":0.3659103512763977,"47":0.09292598813772202,"48":0.14592459797859192,"49":0.18700702488422394,"50":0.13128596544265747,"51":0.03522806242108345,"52":-0.016993843019008636,"53":-0.10921899229288101,"54":-0.019900964573025703,"55":-0.15253861248493195,"56":-0.09609378129243851,"57":-0.28447794914245605,"58":-0.2767563462257385,"59":0.08043885231018066,"60":-0.15811139345169067,"61":0.006639403756707907,"62":-0.11684935539960861,"63":0.12730063498020172,"64":-0.1479981243610382,"65":0.0449368990957737,"66":0.2115473449230194,"67":-0.057633060961961746,"68":0.10020443797111511,"69":-0.07685624808073044,"70":0.13307957351207733,"71":-0.13121333718299866,"72":0.08001600205898285,"73":-0.018360724672675133,"74":-0.2896948754787445,"75":-0.10539356619119644,"76":-0.05552192032337189,"77":0.08752914518117905,"78":-0.07739532738924026,"79":-0.18146079778671265,"80":-0.19282791018486023,"81":-0.18633754551410675,"82":-0.08595165610313416,"83":0.05277671664953232,"84":-0.0064239827916026115,"85":-0.12799517810344696,"86":-0.06548300385475159,"87":-0.11898522824048996,"88":-0.011938899755477905,"89":0.009935724548995495,"90":-0.11077870428562164,"91":-0.026357095688581467,"92":0.06714760512113571,"93":-0.21594688296318054,"94":-0.12180258333683014,"95":-0.050340477377176285,"96":-0.18211476504802704,"97":-0.17559856176376343,"98":0.22189779579639435,"99":-0.21437101066112518,"100":-0.04802597686648369,"101":0.07970311492681503,"102":-0.06069038435816765,"103":0.15994974970817566,"104":0.06460976600646973,"105":-0.062478773295879364,"106":-0.10311634838581085,"107":-0.20922894775867462,"108":0.22524186968803406,"109":0.12080129981040955,"110":-0.13043169677257538,"111":0.2883147597312927,"112":0.10074203461408615,"113":-0.11404038220643997,"114":0.15244382619857788,"115":0.16309210658073425,"116":-0.047474104911088943,"117":0.06626275181770325,"118":0.019231608137488365}},"32":{"bias":0.07185493409633636,"weights":{"0":0.23626430332660675,"1":-0.027805756777524948,"2":-0.010554298758506775,"3":-0.11066272854804993,"4":-0.05484074354171753,"5":0.17140580713748932,"6":-0.033652015030384064,"7":0.06794652342796326,